svm_type c_svc
kernel_type linear
nr_class 9
total_sv 2356
rho -0.287715 -0.35406 -0.166249 -0.516109 0.152334 0.201497 -0.530414 -0.0436917 -0.0558701 0.285849 0.0375919 0.468831 0.505691 0.0455422 0.359133 0.145056 0.032868 0.473054 0.649332 -0.0536191 0.618739 -0.169062 0.464037 0.267806 -0.0783653 0.0940359 0.500474 0.424757 0.230004 0.296345 -0.0165221 -0.482385 -0.269153 -0.569904 -0.312762 0.154758
label 7 9 1 8 6 4 5 3 2
nr_sv 244 198 212 323 271 279 183 308 338
SV
0.551927213917731 1.261892908302587 1.537770870423735 1.103978548084225 1.339913057713309 4 1.405690685759608 1.870399742300721 31:0.36707 114:0.340774 278:0.389378 345:0.625441 360:0.379727 459:0.497948 477:0.575158 583:0.430623 744:0.39119 862:0.562382 964:0.312098 
0.9251820260360971 1.253113821654277 0.5457544589302822 0.6434034865272258 0.9845496143047176 2.115820371135758 1.303472688994247 0.4565349602089677 147:0.47615 157:0.438836 264:0.363876 574:0.489862 731:0.387629 
0.4975607727615704 0 0.1449106921397433 1.202303809667832 1.326619826767777 0.2064028998418674 0.03889489603393685 0.8378950088452787 74:0.355503 102:0.637325 176:0.420131 611:0.576884 967:0.381207 
0.8805049409370516 0.5810822333384925 1.77005290876992 0 1.148019435662192 1.154612465171374 1.386323282659594 1.571501978214444 365:0.5 444:0.443405 
0 0 0.07112911113019768 0 0 0 0 0 13:0.359952 14:0.559592 16:0.438836 18:0.511707 19:0.47305 24:0.379727 27:0.480959 47:0.423419 68:0.465955 70:0.453696 81:0.761717 92:0.951198 93:0.443405 95:0.525219 101:0.395026 123:0.705853 142:0.357227 144:0.36707 147:0.621788 153:0.489862 161:0.47305 167:0.456183 175:0.480959 179:0.663386 180:0.443405 181:0.443405 190:0.44834 205:0.480959 231:0.389378 236:0.588592 246:0.588592 264:0.363876 275:1 277:0.765776 280:0.750376 290:0.453696 297:1 303:0.393071 327:0.438836 330:0.495961 340:0.562382 356:0.341365 359:0.480959 371:0.408637 396:0.761717 404:0.637325 427:0.443405 431:0.401387 461:0.583304 468:0.369335 481:0.525219 482:0.420131 484:0.370512 500:0.426908 504:0.434588 517:0.851311 522:0.489862 541:0.531649 560:0.797217 580:0.636082 582:0.772763 585:0.423419 593:0.465955 605:0.465955 610:0.511397 611:0.443405 621:0.459321 624:0.37555 636:0.423419 648:0.489862 653:0.414357 657:0.328797 669:0.453696 670:0.696236 693:0.668098 698:0.755854 707:0.379727 716:0.576884 726:0.713727 727:0.420131 737:0.45954 784:0.341365 788:0.872918 793:0.668098 827:0.607528 851:0.382734 861:0.603607 867:0.525219 874:0.401387 879:0.414083 880:0.852559 881:0.94296 890:0.489862 911:0.631541 922:0.395026 926:0.597875 942:0.379727 946:0.765776 952:0.379727 957:0.489862 961:0.541977 
0 0 0.07345546414835252 0 0 0 0 0 11:0.489862 14:0.581747 18:0.511707 19:0.47305 36:0.347819 41:0.511707 43:0.47305 81:0.718268 123:0.449857 127:0.641939 128:0.39119 132:0.541977 147:0.540596 163:0.393071 179:0.414083 220:0.393071 231:0.389378 252:0.364915 257:0.492171 259:0.579736 278:0.389378 280:0.533093 287:0.420131 295:0.39706 303:0.393071 309:0.379727 330:0.381207 356:0.721625 364:0.45954 381:0.37555 385:0.414083 392:0.379727 400:0.736303 402:0.434588 408:0.382734 414:0.511397 419:0.447322 424:0.635204 452:0.426908 459:0.382734 468:0.369335 481:0.596306 489:0.597875 504:0.434588 508:0.710434 516:0.511707 539:0.331451 541:0.408637 554:0.563088 559:0.765776 564:0.541977 569:0.546603 572:0.443405 574:0.784788 580:0.430623 582:0.434588 590:0.5 604:0.324382 610:0.393071 611:0.84384 621:0.627765 634:0.480279 636:0.550881 670:0.434588 707:0.494037 710:0.438836 711:0.525461 716:0.443405 726:0.401387 731:0.387629 737:0.780744 739:0.406108 746:0.438836 774:0.423419 785:0.472093 787:0.489862 788:0.575178 795:0.543858 802:0.426908 825:0.615996 836:0.461433 839:0.434588 855:0.511707 861:0.408637 893:0.453696 961:0.705128 964:0.687902 
1.518505554677367 0.9787507687053014 1.933681380201784 1.966987375229375 2.132480022646213 3.305886302175614 1.966229826473453 1.537037390855268 176:0.420131 278:0.389378 297:0.465955 437:0.47305 788:0.467101 882:0.438836 954:0.45954 
0 0 0 0 0 0 0.09412711675284811 0 175:0.480959 226:0.511707 381:0.37555 396:0.44834 407:0.570939 444:0.654964 470:0.39119 504:0.434588 707:0.560903 922:0.395026 962:0.353848 
0 0 0 0.08077781001786057 0 0 0 0 12:0.47305 14:0.413293 19:0.698752 26:0.420131 31:0.477569 36:0.347819 38:0.583501 64:0.417025 86:0.420131 90:0.683641 132:0.541977 136:0.423419 143:0.542562 144:0.67728 147:0.621788 152:0.47305 153:0.489862 154:0.486895 158:0.631541 159:0.438836 161:0.47305 169:0.717172 180:0.443405 203:0.511397 211:0.590272 217:0.706088 221:0.900256 241:0.576884 259:0.901548 264:0.473414 266:0.417025 278:0.506592 290:0.453696 291:0.39706 295:0.864038 311:0.25841 326:0.5 330:0.381207 335:0.504317 341:0.374238 356:0.444126 373:0.480959 381:0.554734 382:0.650515 387:0.658914 390:0.443405 392:0.560903 402:0.434588 409:0.576884 427:0.443405 431:0.401387 442:0.583304 445:0.368188 448:0.563095 451:0.911445 470:0.50895 504:0.434588 533:0.542562 554:0.381207 562:0.460366 563:0.565412 569:0.546603 579:0.379727 585:0.423419 587:0.45954 588:0.349977 593:0.465955 603:0.39706 619:0.436525 632:0.519342 634:0.325145 636:0.550881 658:0.723585 669:0.453696 690:0.615452 693:0.417025 695:0.583304 702:0.356356 707:0.645145 710:0.570939 715:0.542562 724:0.426908 730:0.542325 731:0.757522 737:0.780744 783:0.583304 785:0.581325 786:0.401387 793:0.417025 802:0.426908 809:0.565412 826:0.590272 836:0.461433 839:0.434588 865:0.511707 867:0.744856 868:0.670164 879:0.703515 882:0.438836 893:0.453696 910:0.359024 921:0.417025 922:0.395026 930:0.406108 942:0.379727 952:0.379727 956:0.519342 962:0.707695 964:0.554958 967:0.495961 
0.07994591650976114 0 0 0.1135306321452778 0 0 0 0.08814401464151105 12:0.47305 14:0.279796 16:0.809696 31:0.477569 105:0.5 144:0.36707 147:0.586321 153:0.489862 161:0.47305 180:0.443405 186:0.736303 257:0.378293 285:0.329226 291:0.636113 330:0.381207 356:0.444126 448:0.351482 459:0.382734 460:0.5 494:0.356356 501:0.426908 522:0.637325 548:0.387629 619:0.295524 670:0.434588 684:0.692372 737:0.678796 754:0.364915 836:0.354667 918:0.399178 964:0.609916 
0 0 0 0.308928470672524 0 0 0 0 14:0.413293 19:0.698752 46:0.489862 48:0.406108 49:0.45954 50:0.588592 98:0.354667 101:0.395026 102:0.489862 114:0.340774 123:0.510744 136:0.423419 147:0.47615 150:0.378293 153:0.489862 161:0.47305 175:0.480959 176:0.420131 178:0.381207 193:0.665746 196:0.589634 213:0.636082 231:0.389378 235:0.747903 242:0.504317 248:0.555421 252:0.364915 256:0.434588 272:0.562382 279:0.417025 280:0.3609 286:0.880788 295:0.39706 324:0.44834 335:0.387629 347:0.45954 356:0.341365 359:0.480959 369:0.420131 381:0.714706 382:0.80103 385:0.611651 390:0.576884 396:0.44834 441:0.550881 445:0.368188 465:0.588592 468:0.369335 477:0.389378 481:0.403694 483:0.436921 504:0.641939 508:0.480959 520:0.636082 528:0.562382 536:0.550477 558:0.453696 560:0.44834 572:0.443405 574:0.489862 579:0.494037 597:0.855217 610:0.69894 636:0.550881 642:0.47305 670:0.641939 678:0.430623 693:0.417025 695:0.44834 726:0.401387 739:0.65061 746:0.438836 761:0.76448 762:0.44834 770:0.550881 774:0.423419 778:0.522216 783:0.44834 784:0.341365 785:0.362861 786:0.401387 788:0.530322 794:0.389378 814:0.399178 825:0.417025 839:0.434588 851:0.382734 861:0.408637 879:0.611651 880:0.370512 881:0.588592 893:0.670164 905:0.408637 911:0.37172 914:0.44834 921:0.417025 926:0.45954 936:0.45954 942:0.645145 
0.1228579954777928 0.144531042979541 0.3109429225688387 0.2842574343901355 0.2411830335332813 0 0.1210779066885353 0.2536476424876069 14:0.279796 31:0.542207 36:0.347819 49:0.73621 64:0.417025 94:0.676992 128:0.798572 129:0.551846 136:0.423419 152:0.47305 157:0.438836 196:0.519342 226:0.511707 257:0.378293 278:0.760938 298:0.47305 347:0.45954 370:0.322542 371:0.408637 431:0.522216 463:0.39119 504:0.434588 509:0.511707 513:0.414083 588:0.45533 589:0.784788 612:0.560253 691:0.562382 730:0.304994 749:0.5 770:0.678342 783:0.662253 859:0.39706 867:0.403694 876:0.636082 900:0.408637 918:0.399178 964:0.406049 
0 0 0 0.61295245490492 0.107028406812069 0 0.02266086397458845 0 14:0.413293 16:0.438836 81:0.44834 92:0.465955 147:0.540596 153:0.489862 181:0.443405 231:0.389378 246:0.588592 263:0.393071 275:0.588592 292:0.511707 309:0.379727 400:0.764024 467:0.489862 468:0.369335 481:0.646743 494:0.356356 548:0.387629 617:0.597875 670:0.434588 726:0.522216 761:0.62671 787:0.489862 808:0.44834 864:0.387629 922:0.395026 
0 0 0.3195732640152069 0.09381128116764777 0 0 0.1716123888758165 0 8:0.39706 14:0.624071 18:0.511707 38:0.395026 45:0.420131 81:0.761717 88:0.542562 92:0.465955 93:0.443405 117:0.683255 123:0.762119 142:0.357227 144:0.698567 147:0.540596 152:0.47305 176:0.620584 179:0.611651 180:0.443405 190:0.44834 191:0.338496 196:0.399178 205:0.710434 231:0.623806 236:0.588592 246:0.588592 250:0.411292 257:0.853154 263:0.393071 265:0.356356 279:0.417025 280:0.578183 295:0.39706 297:0.465955 309:0.826321 313:0.343822 330:0.610716 331:0.5 334:0.525121 339:0.486895 356:0.742841 359:0.480959 381:0.554734 397:0.47305 400:0.663386 402:0.434588 417:0.511707 419:0.343822 425:0.44834 427:0.443405 444:0.576884 468:0.369335 481:0.685865 482:0.420131 494:0.46363 508:0.981825 528:0.562382 538:0.489862 544:0.489862 552:0.423419 554:0.563088 562:0.353848 564:0.541977 570:0.45954 580:0.430623 582:0.82706 591:0.565412 593:0.606222 597:0.480959 601:0.430623 608:0.525461 610:0.511397 611:0.654964 617:0.45954 634:0.423024 646:0.457288 647:0.362861 669:0.453696 670:0.696236 693:0.417025 694:0.665746 698:0.511707 707:0.379727 710:0.438836 716:0.788442 726:0.522216 762:0.44834 770:0.678342 778:0.401387 784:0.606998 785:0.362861 788:0.732909 793:0.741533 795:0.479024 802:0.426908 818:0.426908 825:0.992607 827:0.535103 836:0.523887 839:0.434588 855:0.511707 856:0.376902 861:0.531649 867:0.403694 881:0.588592 911:0.483619 921:0.417025 952:0.379727 964:0.687902 
0 0 0.7812616263944382 0.4884779367566707 0.1847270715749959 0 0.8073475859855512 0.02226045685903633 19:0.47305 95:0.403694 147:0.47615 176:0.420131 230:0.338496 232:0.489862 285:0.329226 291:0.39706 574:0.489862 608:0.525461 716:0.443405 
0.1966038492378863 0.7221015622266548 1.020944066828393 0.2542092696261081 1.141533533350958 0.5155767388850367 1.24486305498731 0.6696613849096563 176:0.420131 209:0.443405 330:0.381207 360:0.379727 493:0.624196 617:0.45954 636:0.423419 658:0.489862 716:0.443405 845:0.525461 922:0.395026 957:0.489862 
0.6436040873136442 1.350297151048875 0.8664512365747147 0.1409702343463372 1.90540990137015 0.5560729933147326 1.476301288895272 1.404242763779164 30:0.403694 81:0.583304 360:0.379727 611:0.443405 716:0.443405 912:0.430623 962:0.353848 
0 0 1.112829108674543 1.130711523157644 0.1814103045209798 0 0.4772374374849042 0 11:0.637325 16:0.438836 24:0.379727 38:0.395026 66:0.369335 81:0.583304 101:0.513941 123:0.34577 136:0.423419 179:0.414083 193:0.511707 205:0.480959 235:0.335315 246:0.588592 267:0.5 278:0.878152 280:0.533093 307:1 316:0.606222 331:0.5 340:0.562382 369:0.420131 402:0.434588 468:0.480516 475:0.5 513:0.414083 582:0.434588 590:0.5 591:0.434588 611:0.443405 619:0.295524 647:0.362861 726:0.681944 789:0.339053 824:0.703042 867:0.403694 967:0.381207 
0.1169060687646131 0 0 0.2727974401053914 0.1526783443329497 0 0.5007391519287678 0 59:0.434588 68:0.465955 92:0.465955 101:0.395026 147:0.540596 153:0.489862 169:0.296969 175:0.480959 176:0.420131 207:0.426908 242:0.387629 246:0.94296 252:0.364915 280:0.469541 290:0.453696 328:0.625742 330:0.381207 331:0.5 373:0.480959 381:0.37555 390:0.443405 396:0.44834 404:0.489862 408:0.613162 427:0.654964 457:0.541977 461:0.583304 483:0.436921 504:0.434588 520:0.430623 609:0.593582 636:0.550881 658:0.489862 702:0.356356 704:0.346441 788:0.530322 795:0.368188 808:0.44834 868:0.453696 873:0.465955 880:0.593582 922:0.395026 959:0.5 
0 0 0.1005477457623824 0 0 0 0 0 11:0.489862 12:0.47305 24:0.379727 52:0.5 55:0.406108 123:0.449857 153:0.489862 161:0.47305 163:0.393071 174:0.562382 176:0.620584 217:0.459321 220:0.511397 231:0.506592 232:0.489862 235:0.335315 242:0.387629 320:0.3609 321:0.44834 324:0.44834 325:0.47305 459:0.382734 461:0.44834 504:0.434588 536:0.324006 579:0.560903 603:0.39706 611:0.905165 631:0.562382 662:0.406108 670:0.434588 694:0.511707 702:0.356356 710:0.438836 716:0.710362 836:0.354667 864:0.621006 876:0.430623 882:0.438836 921:0.417025 964:0.312098 
0.02499730485176855 0.0972805028823346 0 0 0.00961647093611862 0.07824430592169213 0 0.0349198331192979 12:0.47305 14:0.279796 16:0.648215 31:0.36707 43:0.841154 68:0.886755 101:0.395026 153:0.489862 161:0.47305 179:0.538735 193:0.511707 325:0.615452 356:0.341365 360:0.379727 384:0.417025 451:0.408637 452:0.759108 483:0.335827 494:0.356356 539:0.431228 547:0.47305 560:0.662253 562:0.460366 590:0.5 744:0.62671 770:0.423419 836:0.354667 846:0.408637 876:0.430623 880:0.482047 
0 0 0 0.07390490000288931 0 0 0 0 12:0.47305 14:0.413293 18:0.511707 26:0.420131 31:0.36707 45:0.546603 47:0.423419 50:0.588592 81:0.947766 88:0.417025 92:0.688273 119:0.77617 123:0.614832 126:0.354667 128:0.39119 142:0.464763 144:0.36707 147:0.935554 161:0.615452 163:0.393071 176:0.546603 178:0.381207 179:0.809219 190:0.583304 193:0.511707 201:0.5 207:0.555421 217:0.459321 221:0.47305 224:0.370512 231:0.74102 232:0.489862 246:0.588592 257:0.697988 259:0.361869 264:0.363876 267:0.5 272:0.731676 275:0.588592 277:0.588592 278:0.389378 279:0.542562 280:0.822402 285:0.486307 291:0.586505 292:0.755854 297:0.465955 309:0.675213 315:0.511707 327:0.438836 340:0.731676 345:0.423419 356:0.709759 359:0.480959 360:0.379727 364:0.45954 381:0.488602 382:0.80103 390:0.443405 396:0.718268 402:0.434588 407:0.438836 417:0.511707 451:0.408637 464:0.414083 465:0.588592 475:0.650515 481:0.889791 494:0.356356 504:0.696236 522:0.723585 531:0.637325 547:0.47305 560:0.44834 563:0.696236 564:0.541977 566:0.387629 579:0.494037 582:0.565412 591:0.434588 608:0.892743 610:0.786142 619:0.384486 626:0.525461 634:0.325145 636:0.719376 647:0.53599 650:0.403694 670:0.565412 680:0.411292 693:0.741533 707:0.608346 710:0.438836 716:0.753332 726:0.522216 737:0.597875 746:0.438836 762:0.44834 785:0.362861 788:0.732909 793:0.417025 824:0.438836 829:0.747954 830:0.359952 836:0.461433 838:0.541977 839:0.434588 851:0.613162 861:0.408637 867:0.685865 876:0.430623 882:0.74557 911:0.37172 921:0.615996 940:0.403694 952:0.379727 962:0.353848 964:0.312098 
0 0 0 0.009766345265277194 0 0 0 0 12:0.47305 14:0.364023 31:0.588068 81:0.718268 92:0.465955 95:0.646743 101:0.395026 123:0.553945 142:0.714454 147:0.883831 161:0.47305 176:0.775182 179:0.538735 193:0.511707 197:0.438836 201:0.384311 207:0.683933 215:0.465955 217:0.459321 231:0.623806 257:0.862037 264:0.582951 272:0.562382 275:0.765776 277:0.588592 280:0.7218 291:0.75564 297:0.606222 309:0.645145 324:0.44834 356:0.79962 359:0.480959 370:0.419637 381:0.37555 396:0.44834 400:0.414083 402:0.434588 417:0.755854 432:0.39706 468:0.369335 475:0.650515 481:0.788917 483:0.335827 484:0.370512 494:0.356356 504:0.434588 508:0.480959 517:0.417025 522:0.637325 560:0.44834 562:0.353848 570:0.45954 582:0.696236 610:0.667816 617:0.45954 636:0.550881 646:0.457288 647:0.472093 664:0.401387 693:0.542562 710:0.438836 713:0.465955 716:0.443405 726:0.401387 727:0.546603 737:0.597875 762:0.583304 784:0.579968 788:0.718048 793:0.542562 808:0.583304 824:0.438836 826:0.453696 829:0.565344 836:0.461433 839:0.434588 851:0.650253 861:0.408637 873:0.465955 876:0.430623 880:0.370512 911:0.549076 949:0.465955 
0 0 0 0.46296467551808 0 0 0 0 14:0.413293 47:0.423419 76:0.511707 81:0.853232 95:0.596306 102:0.489862 119:0.683641 123:0.34577 144:0.36707 147:0.796405 161:0.47305 176:0.546603 179:0.538735 181:0.443405 188:0.420131 193:0.511707 201:0.384311 215:0.465955 216:0.453696 231:0.389378 235:0.335315 257:0.833803 264:0.537489 275:0.588592 279:0.417025 280:0.533093 291:0.636113 309:0.789522 330:0.74497 356:0.761396 380:0.384311 381:0.37555 390:0.576884 396:0.583304 402:0.565412 431:0.401387 464:0.414083 465:0.765776 475:0.5 481:0.685865 504:0.565412 516:0.819786 563:0.738352 608:0.892743 610:0.802413 617:0.597875 621:0.353044 636:0.625441 647:0.362861 680:0.411292 693:0.542562 713:0.465955 716:0.654964 726:0.592897 737:0.597875 762:0.44834 782:0.562382 784:0.341365 788:0.683255 808:0.44834 824:0.438836 827:0.607528 829:0.382734 830:0.359952 839:0.434588 851:0.382734 882:0.438836 911:0.37172 962:0.353848 
0 0.06429852159790783 0 0 0 0 0 0.2402524947491186 14:0.279796 19:0.47305 90:0.525461 102:0.723585 176:0.420131 201:0.384311 309:0.379727 470:0.39119 504:0.434588 563:0.565412 867:0.525219 882:0.438836 911:0.37172 936:0.45954 
0 0 0 1.46512125823234 0 0 0.5506653622640493 0.300253299595148 19:0.47305 74:0.355503 147:0.47615 176:0.420131 279:0.417025 353:0.525461 563:0.434588 809:0.434588 882:0.438836 922:0.395026 
0 0.1492330015481041 0 0 0 0 0 0.03108595141567173 81:0.583304 102:0.723585 123:0.34577 175:0.480959 359:0.480959 407:0.570939 445:0.368188 808:0.44834 867:0.403694 879:0.414083 882:0.438836 957:0.489862 962:0.353848 
0 0 0 0 0.05962212684281189 0 0.08836220264386392 0 14:0.279796 38:0.395026 123:0.449857 147:0.365979 214:0.541977 226:0.511707 229:0.453696 252:0.364915 280:0.3609 299:0.364915 345:0.423419 346:0.364915 356:0.444126 359:0.480959 396:0.44834 424:0.357227 459:0.382734 481:0.525219 490:0.406108 619:0.295524 626:0.525461 644:0.541977 716:0.84384 739:0.406108 788:0.359024 829:0.382734 867:0.403694 914:0.44834 
0 0.02056257430240673 0.4058337668900131 0.353051462287394 0 0 0.03302984380290337 0 5:0.497948 26:0.420131 36:0.452523 47:0.423419 95:0.403694 123:0.587453 147:0.675268 153:0.489862 169:0.386365 176:0.620584 197:0.438836 207:0.555421 217:0.353044 218:0.355503 236:0.588592 259:0.361869 278:0.506592 280:0.469541 295:0.39706 297:0.606222 307:0.525461 309:0.929253 324:0.44834 327:0.438836 330:0.495961 355:0.543184 360:0.379727 381:0.37555 396:0.44834 400:0.414083 413:0.365979 417:0.511707 431:0.401387 445:0.368188 452:0.426908 461:0.44834 483:0.335827 494:0.356356 504:0.434588 522:0.489862 536:0.421542 547:0.47305 552:0.423419 564:0.541977 579:0.494037 582:0.434588 588:0.349977 609:0.370512 610:0.667816 611:0.443405 621:0.459321 636:0.423419 653:0.414357 699:0.379727 702:0.356356 721:0.39119 726:0.643046 731:0.387629 737:0.45954 738:0.353044 744:0.798572 756:0.480959 771:0.434588 782:0.731676 783:0.44834 784:0.579968 788:0.467101 824:0.438836 829:0.382734 839:0.434588 845:0.525461 865:0.511707 867:0.403694 879:0.414083 893:0.453696 911:0.595518 912:0.430623 922:0.395026 959:0.650515 962:0.353848 
0 0 0.1383434819243425 0.2216311991344115 0 0 0 0 12:0.47305 16:0.438836 18:0.511707 44:0.423419 52:0.5 54:0.516586 56:0.5 64:0.417025 74:0.46252 81:0.44834 123:0.449857 147:0.47615 153:0.489862 161:0.47305 176:0.620584 179:0.538735 188:0.420131 196:0.399178 211:0.453696 214:0.541977 229:0.670164 231:0.506592 235:0.638134 242:0.387629 248:0.555421 264:0.363876 280:0.533093 307:0.525461 313:0.507866 325:0.47305 340:0.731676 375:0.511397 381:0.37555 389:0.434588 390:0.443405 392:0.560903 403:0.357227 452:0.630596 456:0.401387 481:0.525219 490:0.528359 494:0.46363 531:0.489862 535:0.465955 560:0.44834 564:0.800565 593:0.465955 600:0.5 601:0.430623 610:0.393071 611:0.576884 631:0.562382 636:0.550881 662:0.406108 665:0.441118 670:0.434588 694:0.755854 704:0.55502 716:0.443405 726:0.643046 727:0.673075 739:0.406108 762:0.718268 774:0.423419 788:0.467101 793:0.417025 794:0.389378 829:0.382734 836:0.354667 839:0.772763 840:0.550881 867:0.646743 869:0.411292 882:0.438836 903:0.485234 905:0.777674 911:0.37172 914:0.44834 918:0.399178 921:0.542562 942:0.379727 961:0.541977 962:0.353848 
0 0 0 0 0 0 0.04003852788651039 0 12:0.47305 31:0.36707 45:0.420131 48:0.722122 92:0.465955 147:0.963795 152:0.47305 153:0.489862 154:0.486895 158:0.37172 161:0.47305 272:0.562382 291:0.636113 340:0.562382 346:0.364915 402:0.565412 432:0.516586 459:0.382734 475:0.5 483:0.335827 494:0.356356 564:0.541977 600:0.5 644:0.541977 737:0.45954 788:0.530322 829:0.565344 836:0.354667 861:0.408637 867:0.525219 892:0.637325 902:0.583304 957:0.489862 964:0.575852 
0 0.004143724077771235 0 0 0 0 0 0 12:0.47305 14:0.44825 15:0.443405 19:0.924454 26:0.420131 38:0.395026 40:0.443405 47:0.423419 48:0.406108 64:0.417025 77:0.447322 86:0.420131 136:0.625441 144:0.698567 147:0.586321 153:0.489862 158:0.37172 161:0.615452 178:0.381207 179:0.538735 203:0.667816 217:0.353044 242:0.387629 246:0.588592 250:0.411292 254:0.541977 259:0.614805 272:0.562382 279:0.417025 281:0.339053 291:0.39706 292:0.511707 295:0.516586 297:0.465955 303:0.511397 305:0.688273 310:0.39119 345:0.550881 346:0.364915 356:0.546887 359:0.625742 360:0.494037 385:0.414083 402:0.434588 403:0.357227 408:0.382734 413:0.586321 419:0.343822 427:0.710362 451:0.408637 483:0.335827 494:0.356356 504:0.434588 508:0.625742 527:0.393071 531:0.489862 579:0.494037 585:0.550881 605:0.465955 611:0.443405 619:0.295524 632:0.589634 634:0.423024 644:0.541977 675:0.443405 707:0.379727 710:0.703042 744:0.695595 774:0.423419 788:0.359024 809:0.434588 814:0.399178 825:0.417025 836:0.461433 867:0.403694 879:0.611651 896:0.570939 922:0.395026 926:0.45954 952:0.379727 964:0.530245 
0 0 0 0.1626789210432776 0 0 0 0 43:0.757854 47:0.423419 68:0.465955 153:0.489862 169:0.296969 175:0.625742 189:0.363876 243:0.443405 252:0.364915 256:0.434588 280:0.3609 283:0.719376 297:0.746489 313:0.550823 345:0.423419 404:0.637325 408:0.382734 427:0.654964 445:0.368188 452:0.426908 465:0.588592 477:0.389378 481:0.403694 483:0.436921 517:0.668098 527:0.393071 608:0.525461 609:0.370512 631:0.562382 636:0.625441 648:0.489862 665:0.500823 670:0.434588 715:0.417025 716:0.443405 726:0.522216 744:0.62671 836:0.354667 922:0.513941 
0 0 0.4889818647526532 0.694864253226037 0 0 0 0 14:0.516251 31:0.542207 81:0.44834 123:0.587453 143:0.417025 147:0.365979 169:0.296969 252:0.474766 259:0.470803 277:0.588592 278:0.389378 283:0.423419 297:0.465955 313:0.343822 316:0.465955 371:0.408637 392:0.560903 396:0.44834 408:0.382734 452:0.630596 494:0.356356 517:0.615996 557:0.443405 587:0.45954 631:0.562382 684:0.389378 762:0.44834 803:0.44834 836:0.354667 880:0.547291 881:0.765776 949:0.465955 959:0.5 
0 0.06143668965468099 0 0 0 0 0 0.02008434684674821 8:0.516586 12:0.47305 13:0.468308 14:0.364023 19:0.872823 31:0.477569 40:0.576884 50:0.588592 55:0.406108 64:0.417025 74:0.46252 86:0.546603 92:0.465955 123:0.449857 144:0.588068 147:0.760938 153:0.489862 158:0.595518 161:0.47305 169:0.593938 176:0.420131 180:0.443405 186:0.414083 190:0.44834 191:0.542291 203:0.817266 208:0.555421 209:0.866522 211:0.453696 216:0.453696 217:0.459321 221:0.841154 226:0.511707 233:0.465955 242:0.843517 245:0.513941 248:0.426908 252:0.971681 256:0.434588 257:0.378293 259:0.579736 262:0.325925 281:0.441118 285:0.428333 291:0.516586 295:0.732614 303:0.580614 311:0.336199 335:0.387629 345:0.423419 346:0.474766 356:0.341365 381:0.638049 385:0.414083 392:0.775173 400:0.663386 402:0.434588 404:0.489862 408:0.706181 413:0.825383 419:0.343822 427:0.886811 431:0.643046 442:0.583304 444:0.443405 445:0.479024 451:0.726619 464:0.538735 470:0.577835 482:0.546603 494:0.46363 503:0.480959 508:0.710434 524:0.952818 539:0.489594 563:0.434588 567:1 569:0.546603 574:0.489862 595:0.465955 601:0.636082 605:0.465955 617:0.847896 632:0.399178 642:0.47305 646:0.351482 650:0.71783 658:0.489862 665:0.339053 666:0.384311 675:0.443405 684:0.506592 703:0.434588 709:0.650515 711:0.525461 715:0.542562 719:0.817134 730:0.304994 737:0.955466 744:0.50895 770:0.423419 774:0.752903 784:0.341365 788:0.575178 795:0.479024 825:0.417025 829:0.382734 830:0.359952 836:0.602569 849:0.408637 867:0.525219 868:0.453696 873:0.828539 875:0.77617 876:0.560253 879:0.703515 882:0.438836 893:0.770816 902:0.583304 903:0.597507 909:0.399178 922:0.395026 929:0.430623 952:0.379727 956:0.519342 957:0.489862 962:0.629195 964:0.312098 
0 0 0 0 0 0 0.1296408660460006 0 359:0.480959 360:0.379727 475:0.5 616:0.414083 662:0.406108 716:0.443405 867:0.403694 
1.134862715025901 1.125610762032466 1.1070157794786 2.846929851860371 2.534525809716932 2.801145917680803 2.890511742502641 3.022225752649928 385:0.414083 445:0.368188 475:0.5 616:0.414083 
0 0.2358787707042244 0 0.5305409082356868 0 0.8486757244450068 0 0 48:0.406108 264:0.363876 403:0.357227 419:0.343822 427:0.443405 483:0.335827 522:0.637325 580:0.560253 634:0.423024 646:0.351482 670:0.434588 710:0.438836 794:0.74102 929:0.430623 
0 0.2747200215981017 0 0.7900646949027765 0 0 0 0.7080930791215737 188:0.420131 334:0.355503 360:0.379727 419:0.343822 522:0.637325 554:0.381207 634:0.423024 646:0.351482 695:0.44834 707:0.379727 710:0.438836 794:0.809586 809:0.434588 967:0.381207 
0 0 0.08386376660368806 0 1.160820553606522 0 0.4666785290770445 0 242:0.387629 257:0.378293 419:0.343822 459:0.382734 522:0.723585 559:0.588592 634:0.325145 646:0.519181 657:0.328797 684:0.389378 710:0.438836 787:0.489862 794:0.692372 864:0.387629 911:0.37172 
0 0 0 0 0.1633564000427424 0 0.08547438833805496 0 81:0.44834 390:0.443405 419:0.343822 522:0.637325 585:0.423419 634:0.423024 646:0.351482 710:0.570939 794:0.794872 912:0.560253 918:0.399178 
0.1413332817957228 0 0.1766313371724905 0 0 0 0 0 419:0.343822 468:0.369335 522:0.637325 634:0.325145 646:0.519181 669:0.453696 710:0.438836 794:0.74102 
0.319009799493011 0.1335882287710784 0.9583932928813778 0.422342625672166 0.8134084551058073 0.6433687866325843 0 0.7183523357708913 62:0.465955 179:0.414083 267:0.922549 278:0.389378 307:0.683641 481:0.685865 528:0.562382 619:0.295524 644:0.541977 648:0.489862 684:0.389378 698:0.511707 795:0.368188 803:0.44834 829:0.565344 
0 0.03741297505590147 0.3362979416060088 0 0 0.05156144452906145 0.02270363375568503 0 123:0.34577 181:0.576884 345:0.423419 400:0.414083 419:0.343822 522:0.637325 543:0.434588 557:0.576884 634:0.423024 646:0.351482 702:0.356356 705:0.465955 710:0.438836 794:0.858235 912:0.560253 951:0.414083 
0.3297500274165737 0 0 0 0 0 0 0 31:0.36707 125:0.606222 293:0.511707 381:0.488602 419:0.343822 522:0.637325 543:0.434588 557:0.443405 559:0.765776 634:0.423024 646:0.457288 673:0.5 710:0.438836 794:0.74102 836:0.354667 921:0.417025 939:0.460366 962:0.353848 
0 0 0 0 0 0.002813084703073182 0 0 12:0.47305 18:0.511707 59:0.434588 68:0.606222 91:0.513941 93:0.443405 147:0.365979 153:0.489862 161:0.47305 193:0.511707 230:0.440394 241:0.443405 281:0.339053 291:0.39706 299:0.364915 313:0.507866 330:0.495961 359:0.480959 397:0.47305 408:0.781309 448:0.351482 539:0.489594 579:0.379727 601:0.731615 634:0.325145 636:0.550881 646:0.457288 665:0.500823 704:0.511736 719:0.710434 744:0.50895 793:0.417025 836:0.354667 867:0.403694 
0 0 0.14528924910504 0 0 0 0 0 12:0.47305 31:0.36707 46:0.637325 153:0.489862 161:0.47305 193:0.511707 235:0.335315 317:0.535103 402:0.434588 461:0.44834 570:0.938101 657:0.328797 836:0.354667 839:0.434588 890:0.489862 
0.3868841685877673 0.2474768067481078 2.11992481594417 0.2436544529882495 1.233951354536371 0.4446767803388048 1.225277044068653 0.6563840418135726 141:0.550909 154:0.374238 188:0.420131 243:0.443405 278:0.506592 285:0.329226 384:0.417025 393:0.320454 397:0.47305 547:0.47305 570:0.45954 714:0.382734 726:0.401387 964:0.5 
0 0 0 0.1494737966536756 0 0 0 0 14:0.279796 31:0.36707 41:0.94415 93:0.654964 95:0.525219 123:0.34577 147:0.715213 153:0.489862 166:0.318804 190:0.583304 215:0.606222 231:0.389378 242:0.504317 252:0.364915 257:0.78654 259:0.614805 290:0.590272 295:0.586505 326:0.5 330:0.381207 334:0.355503 353:0.77617 356:0.696859 392:0.379727 408:0.382734 427:0.576884 468:0.591697 500:0.426908 504:0.434588 557:0.443405 559:0.588592 562:0.353848 570:0.597875 611:0.576884 612:0.430623 632:0.399178 710:0.438836 730:0.396806 731:0.504317 744:0.39119 746:0.438836 754:0.364915 762:0.44834 787:0.489862 829:0.382734 873:0.465955 876:0.430623 879:0.538735 893:0.453696 910:0.359024 922:0.513941 962:0.353848 
0 0 0 0 0.7648065974026181 0 0.2701857723996052 0 8:0.39706 46:0.489862 123:0.34577 280:0.469541 307:0.683641 427:0.443405 483:0.335827 494:0.356356 560:0.44834 564:0.541977 582:0.434588 611:0.443405 616:0.414083 716:0.576884 762:0.44834 839:0.565412 851:0.497948 
0 0 0.1419333996464404 0 0 0 0 0 11:0.784788 12:0.47305 14:0.279796 18:0.511707 24:0.379727 26:0.420131 76:0.511707 81:0.797217 92:0.465955 123:0.80994 147:0.785439 157:0.438836 161:0.803697 176:0.775182 179:0.611651 196:0.519342 198:0.401387 202:0.5 213:0.430623 235:0.335315 243:0.753332 246:0.588592 256:0.565412 263:0.393071 264:0.363876 270:0.5 275:0.588592 277:0.588592 280:0.774537 296:0.414083 297:0.688273 306:0.417025 307:0.525461 313:0.654323 320:0.533093 327:0.438836 340:0.562382 365:0.5 392:0.494037 396:0.761717 404:0.489862 412:0.511397 431:0.401387 441:0.423419 452:0.426908 492:0.378293 494:0.526382 517:0.542562 522:0.489862 537:0.423419 547:0.47305 564:0.541977 582:0.565412 591:0.434588 601:0.560253 609:0.370512 611:0.576884 631:0.731676 636:0.423419 644:0.541977 648:0.637325 662:0.599871 665:0.441118 670:0.565412 694:0.511707 704:0.55502 707:0.494037 726:0.848509 737:0.45954 739:0.77286 742:0.411292 762:0.44834 784:0.504237 785:0.362861 787:0.489862 788:0.359024 793:0.417025 803:0.44834 808:0.44834 836:0.354667 851:0.728376 861:0.408637 864:0.504317 867:0.403694 881:0.588592 887:0.708512 903:0.372962 909:0.399178 911:0.483619 926:0.45954 946:0.588592 952:0.379727 959:0.5 960:0.624196 963:0.44834 
0.6428647869578885 0.3066350817459437 2.902467235988242 2.935581374389587 1.525264380079407 1.855608147524525 4 1.106565757687997 81:0.44834 123:0.34577 275:0.765776 330:0.381207 432:0.39706 610:0.393071 
0.2306105861602281 0 0.9362778553798152 0.2018959253689397 0 0 1.333078125673635 0 18:0.511707 48:0.406108 81:0.44834 204:0.417025 217:0.353044 330:0.381207 610:0.393071 611:0.443405 839:0.434588 882:0.438836 946:0.588592 
0 0 0 0 0 1.273321095093964 0 0 12:0.47305 123:0.34577 153:0.489862 161:0.47305 836:0.354667 
0.3275321789937913 0.1835141823593904 0.1950504607741892 2.333800428648575 0.9831694692197667 0.2740853756599344 0.1332757215800104 0.2872053308374746 259:0.361869 407:0.438836 441:0.423419 504:0.434588 593:0.465955 610:0.393071 808:0.44834 946:0.588592 
0.1918896456645365 0.1170403427678206 0.1400101258010376 0.7213707516209916 0.248677986345451 0.1584062732306701 0.3952054699965141 0.4887131396649968 11:0.637325 19:0.615452 31:0.36707 36:0.51377 44:0.423419 49:0.597875 72:0.541977 82:0.411292 86:0.420131 108:0.403694 123:0.587453 128:0.39119 147:0.365979 176:0.747056 179:0.414083 182:0.722122 185:0.39706 197:0.438836 201:0.384311 207:0.853817 231:0.506592 238:0.688273 243:0.576884 250:0.411292 256:0.434588 264:0.363876 280:0.3609 285:0.559345 297:0.746489 316:0.465955 340:0.562382 358:0.489862 367:0.359952 371:0.408637 389:0.434588 402:0.434588 407:0.570939 418:0.331451 419:0.687643 464:0.414083 492:0.492171 493:0.812098 494:0.356356 513:0.414083 532:0.511707 536:0.324006 551:0.625742 565:0.525461 568:0.406108 611:0.443405 631:0.731676 634:0.552412 677:0.683641 693:0.417025 713:0.606222 715:0.417025 731:0.658571 744:0.74447 784:0.341365 788:0.530322 793:0.417025 822:0.570939 867:0.403694 908:0.426908 912:0.430623 922:0.395026 928:0.654661 940:0.824099 942:0.560903 952:0.560903 960:0.624196 963:0.44834 964:0.637115 967:0.381207 
0.1380572133173382 0.2548218446725587 0 0.4167132510475383 0 0.03377683425427303 0.3069141541617289 0.3087511414456655 11:0.637325 14:0.279796 54:0.39706 64:0.417025 119:0.525461 147:0.540596 166:0.318804 215:0.465955 241:0.443405 278:0.389378 291:0.39706 418:0.331451 471:0.423419 483:0.496057 548:0.504317 591:0.565412 610:0.393071 709:0.5 710:0.438836 731:0.387629 757:0.542562 829:0.613162 867:0.403694 894:0.37172 911:0.483619 922:0.513941 
0 0 0 0.09391215268805185 0 0 0 0 9:0.370512 11:0.637325 12:0.47305 14:0.44825 19:0.615452 70:0.453696 74:0.355503 101:0.395026 102:0.489862 108:0.403694 123:0.510744 124:0.374238 147:0.785439 153:0.489862 161:0.47305 167:0.370465 169:0.296969 176:0.620584 179:0.414083 188:0.420131 191:0.338496 203:0.393071 242:0.387629 247:0.527668 252:0.364915 269:0.5 280:0.533093 297:0.465955 307:0.525461 309:0.379727 313:0.343822 356:0.444126 359:0.480959 381:0.37555 382:0.5 390:0.443405 392:0.494037 396:0.44834 403:0.635204 407:0.438836 408:0.382734 427:0.576884 441:0.423419 442:0.662253 451:0.408637 483:0.436921 494:0.46363 497:0.27395 504:0.434588 522:0.489862 547:0.47305 552:0.423419 572:0.443405 579:0.379727 582:0.434588 585:0.550881 588:0.349977 601:0.430623 609:0.370512 610:0.511397 634:0.325145 644:0.541977 662:0.406108 665:0.339053 670:0.696236 703:0.565412 704:0.450731 711:0.525461 715:0.417025 719:0.480959 722:0.434588 742:0.411292 754:0.364915 762:0.44834 770:0.423419 794:0.940336 803:0.44834 830:0.359952 836:0.354667 843:0.353044 851:0.382734 861:0.408637 869:0.658914 897:0.438836 911:0.549076 912:0.636082 921:0.417025 952:0.379727 962:0.522676 967:0.381207 
0 0.0338688851356008 0 0 0 0 0 0 12:0.47305 14:0.475365 16:0.438836 19:0.47305 26:0.420131 31:0.36707 45:0.420131 54:0.39706 74:0.46252 123:0.34577 147:0.650767 153:0.489862 161:0.47305 176:0.420131 201:0.384311 209:0.443405 220:0.393071 246:0.588592 257:0.492171 259:0.361869 264:0.582951 278:0.389378 279:0.417025 292:0.665746 295:0.516586 303:0.393071 307:0.525461 330:0.381207 392:0.379727 396:0.44834 419:0.343822 427:0.443405 431:0.401387 481:0.403694 483:0.335827 522:0.489862 533:0.417025 547:0.47305 560:0.44834 617:0.678796 648:0.489862 693:0.417025 704:0.346441 710:0.438836 762:0.44834 784:0.341365 836:0.354667 851:0.382734 876:0.560253 902:0.44834 907:0.417025 910:0.467101 911:0.37172 921:0.417025 922:0.395026 926:0.73621 942:0.379727 
0 0.2584764921252475 0.310237571997228 0.1057888815962643 0.5554977795742483 0.07851927799211353 0 0.07474690933867738 14:0.364023 16:0.780317 31:0.477569 38:0.395026 52:0.5 54:0.586505 123:0.34577 147:0.365979 161:0.47305 169:0.475762 231:0.389378 259:0.68867 260:0.47305 267:0.5 278:0.623806 280:0.469541 290:0.453696 295:0.39706 297:0.465955 360:0.379727 371:0.408637 373:0.480959 392:0.494037 418:0.589371 431:0.401387 451:0.408637 458:0.44834 463:0.39119 464:0.414083 483:0.335827 513:0.414083 533:0.417025 535:0.465955 552:0.423419 557:0.443405 574:0.489862 579:0.742079 590:0.5 617:0.45954 623:0.369335 675:0.654964 695:0.44834 698:0.511707 707:0.379727 710:0.438836 742:0.411292 744:0.577835 746:0.570939 785:0.472093 829:0.497948 867:0.685865 893:0.453696 902:0.583304 910:0.718048 926:0.45954 936:0.45954 949:0.465955 952:0.494037 964:0.575852 967:0.381207 
0.1677375901202457 0.06029245477407728 2.114920662251756 0 0.6664196667195312 0.08571301233932342 0.3791453384478932 1.038858504588172 79:0.438836 82:0.535103 108:0.596306 123:0.34577 161:0.47305 179:0.414083 182:0.528359 291:0.39706 392:0.379727 419:0.611367 475:0.5 494:0.46363 536:0.324006 560:0.44834 563:0.434588 597:0.480959 634:0.325145 728:0.525461 803:0.44834 851:0.382734 908:0.555421 952:0.560903 964:0.624196 
0.6480472652223834 0.4755723048560974 3.113599681778199 0.6378643143313767 0.8507274480484687 1.281912900745241 0.690121050658761 0.4645895974185933 131:0.438836 277:0.588592 726:0.401387 879:0.414083 881:0.588592 
0 0 0 0.08202829696534875 0 0 0 0 12:0.47305 45:0.546603 47:0.423419 74:0.355503 81:0.44834 102:0.903843 109:0.443405 144:0.36707 147:0.696492 152:0.47305 153:0.489862 158:0.549076 161:0.47305 169:0.296969 173:0.480959 175:0.480959 176:0.420131 179:0.538735 196:0.399178 201:0.5 213:0.636082 248:0.555421 259:0.470803 285:0.428333 286:0.880788 313:0.343822 327:0.438836 330:0.495961 359:0.710434 385:0.663386 400:0.414083 402:0.434588 406:0.546603 419:0.343822 441:0.719376 452:0.426908 468:0.369335 475:0.5 483:0.335827 494:0.356356 504:0.696236 552:0.781249 563:0.641939 580:0.430623 601:0.430623 609:0.370512 621:0.353044 632:0.399178 648:0.489862 666:0.384311 669:0.453696 670:0.434588 693:0.615996 695:0.44834 707:0.722655 738:0.353044 742:0.411292 754:0.364915 782:0.562382 784:0.341365 788:0.467101 830:0.359952 836:0.354667 843:0.353044 851:0.382734 859:0.39706 867:0.403694 868:0.453696 911:0.37172 921:0.542562 922:0.513941 942:0.645145 952:0.379727 962:0.673404 967:0.381207 
0.06323027781612833 0 0.2443495192549128 0.328235993318888 0 0 0 0.05812314168150586 12:0.47305 26:0.420131 31:0.477569 132:0.541977 153:0.637325 161:0.47305 169:0.386365 179:0.414083 207:0.426908 217:0.353044 290:0.453696 313:0.343822 373:0.480959 375:0.393071 431:0.401387 457:0.705128 504:0.434588 513:0.414083 527:0.629724 601:0.430623 634:0.325145 665:0.576041 670:0.565412 713:0.465955 722:0.434588 731:0.387629 742:0.411292 762:0.44834 770:0.423419 809:0.434588 836:0.461433 843:0.353044 848:0.399178 871:0.370512 876:0.430623 942:0.700634 956:0.399178 
0.05022324665110455 0 0 0 0 0 0 0 12:0.47305 14:0.279796 15:0.443405 16:0.438836 19:0.615452 47:0.550881 64:0.615996 73:0.765776 97:0.417025 117:0.359024 147:0.47615 153:0.489862 161:0.47305 169:0.475762 179:0.414083 203:0.393071 213:0.430623 215:0.465955 217:0.459321 221:0.47305 242:0.504317 246:0.588592 264:0.363876 278:0.506592 285:0.329226 295:0.516586 330:0.495961 345:0.423419 359:0.480959 373:0.480959 385:0.736303 407:0.438836 483:0.335827 499:0.411292 552:0.423419 554:0.381207 574:0.489862 601:0.430623 612:0.430623 623:0.369335 624:0.37555 636:0.423419 651:0.624196 657:0.427774 658:0.489862 669:0.726848 671:0.406108 695:0.583304 707:0.645145 710:0.438836 715:0.542562 784:0.341365 788:0.359024 808:0.44834 836:0.523887 867:0.525219 879:0.414083 910:0.609971 911:0.483619 926:0.45954 942:0.379727 954:0.45954 962:0.460366 964:0.5 967:0.381207 
0.6169733662275174 0.4378137671044192 2.196229840553297 0.9553668002489496 2.200305817319848 1.260518428368189 1.566290135040655 1.37740608323063 47:0.423419 293:0.511707 386:0.434588 396:0.44834 461:0.662253 504:0.434588 593:0.465955 762:0.44834 793:0.417025 809:0.434588 
0.369165125144444 0.07808529945801893 1.752376334517217 0.4071011616134905 0.5896125784049419 0.5575234453237375 0.9608016706520054 0.471767211003741 11:0.489862 49:0.45954 154:0.374238 179:0.414083 188:0.673075 256:0.434588 494:0.356356 655:0.525461 726:0.401387 964:0.406049 
0 0 0 0.3760049504152787 0 0 0 0 107:0.393071 259:0.361869 277:0.588592 309:0.494037 504:0.434588 580:0.430623 611:0.576884 670:0.434588 729:0.624196 737:0.45954 839:0.434588 879:0.414083 881:0.588592 911:0.37172 
0 0.06488682762753679 0 0.1961706225623336 0 0 2.411475352549723 0 181:0.443405 277:0.588592 280:0.3609 504:0.434588 610:0.393071 611:0.443405 879:0.414083 881:0.765776 
0 0 0 0 0 0 0 0.6632557562297835 277:0.588592 504:0.434588 726:0.401387 879:0.538735 881:0.588592 
0 0.1525609363157846 0.6044740021935642 0.07184599417807301 0.08195857166419963 0.02567121442295827 0 0.3385658974591411 11:0.637325 44:0.423419 45:0.420131 46:0.489862 64:0.417025 92:0.465955 119:0.525461 123:0.449857 129:0.344461 179:0.414083 191:0.338496 206:0.453696 233:0.465955 331:0.5 340:0.562382 382:0.5 504:0.434588 548:0.715214 588:0.349977 609:0.547291 694:0.511707 702:0.570904 709:0.650515 716:0.576884 726:0.522216 731:0.504317 761:0.39119 771:0.434588 818:0.426908 829:0.382734 867:0.403694 894:0.37172 911:0.483619 918:0.399178 
0 0 0 0.3259783791079525 0 0 0 0 9:0.370512 12:0.47305 14:0.279796 15:0.576884 16:0.438836 19:0.757854 31:0.588068 38:0.395026 47:0.678342 59:0.641939 101:0.583501 123:0.658032 147:0.650767 153:0.489862 161:0.47305 169:0.296969 196:0.399178 201:0.384311 207:0.426908 215:0.465955 217:0.459321 242:0.387629 246:0.588592 259:0.534525 264:0.363876 278:0.506592 290:0.670164 297:0.791644 305:0.465955 313:0.343822 330:0.381207 347:0.45954 356:0.341365 371:0.408637 392:0.379727 403:0.357227 411:0.378293 431:0.401387 451:0.694262 482:0.420131 483:0.436921 504:0.434588 527:0.393071 579:0.560903 582:0.641939 593:0.606222 601:0.560253 604:0.324382 610:0.511397 617:0.597875 634:0.325145 657:0.485673 669:0.590272 695:0.44834 698:0.511707 704:0.450731 713:0.465955 731:0.387629 744:0.74447 785:0.645222 788:0.359024 795:0.368188 808:0.44834 830:0.359952 836:0.523887 867:0.525219 876:0.430623 879:0.414083 910:0.718048 911:0.483619 917:0.318804 942:0.379727 963:0.44834 964:0.312098 
0 0 0 0 0.04693916236537071 0 0 0 5:0.382734 12:0.47305 46:0.723585 47:0.423419 48:0.406108 49:0.45954 74:0.355503 96:0.335315 101:0.395026 109:0.443405 123:0.34577 128:0.577835 130:0.44834 147:0.785439 150:0.378293 153:0.489862 154:0.374238 161:0.47305 169:0.386365 175:0.480959 176:0.620584 188:0.420131 232:0.489862 275:0.765776 280:0.533093 295:0.516586 299:0.364915 303:0.393071 322:0.387629 324:0.44834 347:0.45954 381:0.37555 390:0.443405 419:0.343822 431:0.643046 432:0.39706 437:0.47305 441:0.678342 464:0.414083 483:0.335827 523:0.39119 548:0.572576 560:0.44834 597:0.625742 616:0.538735 619:0.295524 631:0.562382 634:0.325145 667:0.576884 669:0.670164 670:0.641939 675:0.576884 704:0.346441 707:0.560903 716:0.443405 727:0.420131 728:0.525461 755:0.705128 762:0.583304 768:0.368188 770:0.423419 783:0.44834 795:0.368188 835:0.414083 836:0.461433 840:0.423419 848:0.519342 851:0.382734 860:0.522216 864:0.504317 867:0.525219 879:0.414083 880:0.370512 887:0.417025 888:0.650515 952:0.560903 
0 0 0 0.2280859163845968 0 0 0 0 8:0.706032 12:0.47305 15:0.92192 31:0.717344 43:0.757854 48:0.749309 54:0.39706 74:0.46252 81:0.583304 92:0.688273 95:0.403694 107:0.393071 114:0.578964 117:0.359024 118:0.765712 119:0.525461 123:0.553945 124:0.374238 132:0.705128 142:0.755158 144:0.588068 147:0.833977 151:0.607528 152:0.698752 153:0.489862 154:0.374238 158:0.68586 161:0.47305 163:0.393071 167:0.370465 169:0.386365 175:0.710434 181:0.443405 188:0.420131 190:0.44834 204:0.417025 213:0.430623 217:0.353044 218:0.355503 231:0.506592 232:0.489862 242:0.621006 245:0.632855 247:0.787371 248:0.426908 250:0.411292 254:0.705128 258:0.298142 259:0.470803 264:0.473414 269:0.922549 279:0.615996 280:0.3609 299:0.364915 305:0.746489 307:0.525461 313:0.343822 324:0.44834 327:0.438836 328:0.625742 359:0.480959 360:0.560903 370:0.322542 371:0.603607 373:0.480959 374:0.47305 379:0.44834 381:0.733917 385:0.538735 387:0.698772 392:0.675213 396:0.44834 398:0.465955 402:0.738352 403:0.850276 404:0.723585 407:0.438836 408:0.795772 412:0.629724 427:1 431:0.592897 432:0.39706 434:0.696236 445:0.479024 452:0.555421 453:0.474766 464:0.414083 465:0.588592 468:0.591697 473:0.480959 482:0.747056 483:0.685555 494:0.356356 497:0.521351 500:0.426908 504:0.641939 513:0.414083 516:0.511707 520:0.430623 539:0.563126 562:0.353848 569:0.546603 570:0.678796 580:0.636082 605:0.688273 609:0.741023 610:0.511397 614:0.480959 621:0.353044 632:0.589634 634:0.423024 645:0.94296 646:0.668901 650:0.839354 668:0.562382 669:0.670164 684:0.389378 685:0.281001 695:0.44834 698:0.665746 699:0.379727 702:0.657512 703:0.696236 707:0.759455 711:0.93435 713:0.465955 715:0.417025 716:0.576884 719:0.887416 726:0.401387 731:0.387629 736:0.589634 742:0.658914 756:0.625742 782:0.562382 784:0.444126 788:0.826125 793:0.542562 794:1 795:0.543858 802:0.555421 809:0.932681 830:0.359952 836:0.709335 839:0.565412 841:0.45954 849:0.849631 859:0.516586 867:0.403694 869:0.535103 879:0.933871 880:0.844305 882:0.438836 893:0.453696 902:0.44834 911:0.595518 922:0.583501 929:1 942:0.494037 948:0.757854 949:0.465955 956:0.399178 957:0.489862 961:0.541977 962:0.353848 963:0.44834 967:0.74497 
0 0 0 0 0 0 0.004935752071678954 0 12:0.47305 31:0.542207 36:0.347819 48:0.406108 59:0.641939 66:0.369335 74:0.355503 86:0.420131 123:0.510744 147:0.586321 150:0.378293 153:0.489862 161:0.615452 169:0.296969 198:0.522216 256:0.434588 259:0.361869 278:0.389378 280:0.3609 281:0.339053 285:0.329226 296:0.414083 303:0.511397 335:0.387629 345:0.423419 355:0.339053 356:0.682729 359:0.480959 381:0.601654 385:0.538735 387:0.411292 392:0.722655 396:0.44834 406:0.420131 470:0.39119 475:0.5 477:0.389378 483:0.335827 492:0.378293 513:0.414083 562:0.353848 569:0.420131 601:0.560253 610:0.511397 614:0.480959 616:0.414083 653:0.636967 670:0.434588 699:0.379727 726:0.522216 731:0.387629 737:0.45954 739:0.406108 744:0.76448 755:0.541977 836:0.354667 848:0.399178 861:0.408637 867:0.525219 876:0.560253 893:0.590272 911:0.37172 921:0.417025 922:0.395026 
0 0 0 0.008432705232187357 0 0 0 0 11:0.723585 12:0.47305 14:0.279796 16:0.648215 31:0.477569 43:0.841154 50:0.588592 68:0.465955 81:0.44834 101:0.771977 109:0.443405 129:0.551846 136:0.423419 147:0.675268 153:0.489862 158:0.37172 161:0.757854 169:0.504541 175:0.625742 179:0.414083 180:0.443405 204:0.417025 207:0.426908 230:0.338496 235:0.335315 242:0.621006 243:0.443405 252:0.813925 256:0.434588 257:0.378293 259:0.534525 264:0.473414 283:0.625441 296:0.663386 297:0.465955 313:0.447322 330:0.495961 340:0.830706 345:0.423419 356:0.629851 359:0.625742 360:0.608346 362:0.483619 382:0.5 404:0.903843 408:0.880681 427:0.886811 442:0.44834 445:0.368188 451:0.408637 452:0.630596 481:0.403694 483:0.538015 494:0.356356 503:0.625742 516:0.511707 517:0.851311 522:0.489862 524:0.414083 536:0.421542 539:0.563126 547:0.47305 560:0.583304 564:0.541977 569:0.546603 572:0.443405 580:0.430623 590:0.80103 604:0.551115 609:0.75636 610:0.393071 611:0.443405 636:0.423419 650:0.403694 665:0.500823 670:0.641939 704:0.346441 707:0.494037 719:0.915307 726:0.522216 731:0.504317 742:0.535103 744:0.74447 767:0.417025 778:0.401387 785:0.53599 788:0.359024 793:0.417025 803:0.44834 829:0.382734 836:0.354667 867:0.525219 868:0.453696 873:0.859733 876:0.430623 880:0.370512 882:0.438836 905:0.408637 911:0.483619 922:0.583501 943:0.676992 957:0.489862 959:0.5 962:0.460366 
0 0 0 0.08163690480894753 0 0 0 0 12:0.47305 76:0.511707 81:0.44834 101:0.395026 119:0.683641 123:0.449857 127:0.434588 131:0.438836 147:0.47615 153:0.489862 161:0.47305 169:0.386365 179:0.414083 201:0.384311 206:0.590272 215:0.465955 216:0.453696 221:0.47305 232:0.489862 242:0.387629 259:0.361869 269:0.5 283:0.550881 293:0.511707 295:0.39706 313:0.584143 322:0.387629 328:1 330:0.381207 408:0.747954 475:0.650515 483:0.436921 494:0.356356 517:0.417025 539:0.61156 601:0.430623 604:0.422031 609:0.370512 610:0.393071 647:0.362861 665:0.737811 669:0.590272 670:0.434588 684:0.506592 704:0.346441 714:0.382734 738:0.353044 742:0.782725 744:0.695595 785:0.472093 788:0.530322 836:0.354667 839:0.434588 861:0.408637 867:0.403694 876:0.560253 880:0.482047 911:0.37172 917:0.414774 958:0.45954 
0 0 0.6405945185802083 0.2614542631210379 0.3174948129205868 0.4315368982575594 0.6457381972397334 0.240315915016479 16:0.438836 18:0.511707 123:0.510744 179:0.414083 188:0.420131 191:0.338496 193:0.511707 202:0.5 263:0.393071 307:0.525461 359:0.480959 381:0.488602 390:0.443405 475:0.650515 520:0.430623 536:0.550477 560:0.44834 582:0.434588 631:0.562382 726:0.522216 744:0.50895 803:0.44834 839:0.434588 946:0.588592 
0 0 0 0 0 0 0.04736512950918342 0 11:0.489862 14:0.516251 16:0.570939 18:0.511707 19:0.47305 38:0.513941 45:0.620584 48:0.406108 81:0.662253 92:0.465955 95:0.403694 102:0.489862 123:0.553945 147:0.864344 150:0.378293 153:0.637325 154:0.374238 179:0.414083 188:0.420131 254:0.541977 257:0.378293 285:0.329226 297:0.746489 322:0.387629 330:0.563088 345:0.423419 371:0.408637 379:0.718268 382:0.5 390:0.654964 404:0.489862 412:0.768157 419:0.584143 427:0.710362 457:0.541977 468:0.591697 481:0.403694 484:0.370512 494:0.356356 504:0.434588 516:0.665746 517:0.417025 531:0.489862 560:0.662253 570:0.678796 580:0.430623 582:0.434588 609:0.370512 653:0.470439 665:0.339053 669:0.453696 670:0.641939 693:0.417025 694:0.665746 699:0.379727 707:0.379727 716:0.753332 726:0.401387 737:0.597875 738:0.353044 744:0.50895 756:0.480959 788:0.467101 802:0.555421 808:0.44834 841:0.45954 867:0.646743 882:0.438836 921:0.417025 954:0.45954 957:0.489862 962:0.353848 
0.0813472566420507 0.2546432042709464 0 0 0 0 0.1110101066201019 0.3648687364531962 4:0.599871 12:0.47305 14:0.546789 74:0.525121 86:0.420131 88:0.741533 129:0.344461 147:0.365979 153:0.489862 161:0.47305 196:0.399178 207:0.426908 209:0.443405 242:0.387629 243:0.443405 250:0.607528 257:0.672662 280:0.3609 284:0.426908 292:0.511707 303:0.511397 311:0.25841 324:0.44834 356:0.546887 392:0.379727 402:0.565412 413:0.47615 419:0.584143 455:0.765776 464:0.414083 489:0.45954 540:0.562382 557:0.576884 577:0.480959 588:0.45533 611:0.576884 628:0.525461 634:0.423024 670:0.434588 675:0.84384 677:0.525461 698:0.665746 710:0.438836 732:0.465955 746:0.438836 770:0.423419 801:0.637325 818:0.555421 836:0.354667 856:0.376902 858:0.562382 879:0.414083 907:0.417025 909:0.399178 921:0.417025 954:0.45954 964:0.406049 
0 0 0 0.1812710517109172 0 0 0.05724927458936091 0 9:0.370512 13:0.576664 14:0.475365 19:0.698752 31:0.652706 43:0.841154 68:0.606222 101:0.395026 123:0.510744 130:0.44834 147:0.650767 152:0.47305 153:0.489862 157:0.438836 158:0.37172 161:0.47305 169:0.386365 179:0.663386 190:0.44834 193:0.511707 197:0.438836 206:0.590272 211:0.453696 215:0.465955 231:0.661541 242:0.658571 246:0.588592 252:0.694466 256:0.434588 264:0.363876 283:0.921398 290:0.453696 293:0.511707 297:0.791644 309:0.379727 313:0.343822 330:0.563088 355:0.339053 356:0.341365 360:0.608346 373:0.480959 396:0.44834 400:0.414083 404:1 407:0.438836 408:0.680558 412:0.629724 413:0.365979 427:0.443405 444:0.443405 451:0.531649 452:0.759108 457:0.541977 464:0.414083 467:0.489862 475:0.5 503:0.887416 504:0.434588 517:0.907484 539:0.531005 547:0.47305 555:0.376902 557:0.654964 580:0.430623 605:0.465955 609:0.72407 612:0.560253 621:0.353044 636:0.423419 648:0.489862 650:0.525219 656:0.903587 658:0.489862 665:0.794206 669:0.453696 670:0.641939 702:0.356356 704:0.511736 707:0.379727 719:0.770524 737:0.597875 738:0.353044 742:0.411292 744:0.74447 746:0.570939 770:0.625441 788:0.467101 808:0.583304 809:0.434588 829:0.382734 830:0.359952 840:0.423419 841:0.73621 868:0.453696 873:0.465955 876:0.430623 879:0.414083 880:0.741023 902:0.583304 903:0.372962 911:0.37172 922:0.513941 962:0.353848 967:0.381207 
0.09026948568979888 0.02607966065805876 0 0.05259185058643832 0 0 0 0.1532788317151227 9:0.629488 12:0.47305 14:0.475365 31:0.588068 38:0.513941 43:0.803697 50:0.765776 59:0.434588 74:0.355503 86:0.620584 93:0.443405 123:0.510744 143:0.417025 147:0.47615 153:0.489862 161:0.615452 169:0.504541 178:0.563088 204:0.417025 217:0.353044 221:0.47305 250:0.411292 259:0.764971 264:0.582951 291:0.39706 293:0.511707 295:0.839361 299:0.61998 311:0.25841 313:0.550823 328:0.625742 330:0.610716 346:0.364915 356:0.606998 360:0.379727 362:0.483619 381:0.37555 400:0.663386 408:0.942442 442:0.662253 445:0.368188 451:0.408637 452:0.426908 494:0.570904 539:0.489594 554:0.495961 562:0.353848 573:0.299184 593:0.746489 609:0.741023 632:0.399178 665:0.543184 702:0.356356 704:0.346441 715:0.417025 719:0.770524 738:0.353044 742:1 744:0.76448 836:0.523887 849:0.531649 859:0.39706 876:0.731615 879:0.414083 896:0.438836 911:0.37172 918:0.399178 921:0.542562 922:0.632855 963:0.44834 
0 0 0 0 0 0 0 0.1731193198361082 14:0.44825 16:0.438836 19:0.47305 31:0.36707 43:0.615452 54:0.39706 59:0.434588 66:0.480516 73:0.588592 101:0.632855 147:0.365979 151:0.411292 153:0.489862 157:0.438836 179:0.414083 180:0.443405 207:0.426908 211:0.453696 215:0.465955 216:0.453696 231:0.389378 242:0.387629 252:0.539024 280:0.469541 283:0.880364 293:0.511707 295:0.39706 297:0.465955 328:0.480959 330:0.381207 356:0.546887 360:0.645145 371:0.531649 402:0.434588 407:0.438836 408:0.497948 412:0.393071 425:0.44834 452:0.759108 457:0.541977 475:0.5 481:0.403694 494:0.46363 516:0.511707 517:0.417025 527:0.629724 539:0.431228 552:0.423419 562:0.353848 580:0.430623 587:0.45954 593:0.465955 636:0.423419 645:0.588592 657:0.427774 665:0.576041 670:0.434588 678:0.430623 704:0.450731 715:0.417025 719:0.480959 737:0.597875 765:0.46592 785:0.472093 788:0.359024 873:0.465955 876:0.430623 879:0.611651 880:0.860409 882:0.438836 893:0.453696 902:0.44834 911:0.483619 922:0.395026 929:0.560253 942:0.379727 967:0.381207 
0 0 0 0 0 0 0.1007267880435015 0.3309537326481357 43:0.900256 50:0.94296 88:0.417025 119:0.77617 123:0.449857 147:0.696492 153:0.489862 161:0.47305 169:0.386365 197:0.438836 220:0.74805 252:0.364915 273:0.562382 283:0.625441 295:0.39706 326:0.650515 327:0.438836 330:0.495961 381:0.601654 397:0.47305 400:0.414083 408:0.382734 414:0.393071 452:0.630596 464:0.414083 504:0.434588 539:0.431228 562:0.353848 574:0.489862 593:0.465955 609:0.370512 610:0.393071 632:0.399178 636:0.423419 642:0.47305 646:0.351482 665:0.339053 742:0.658914 788:0.359024 808:0.662253 825:0.417025 836:0.354667 861:0.408637 867:0.525219 887:0.417025 903:0.372962 911:0.483619 912:0.430623 921:0.417025 942:0.379727 954:0.678796 967:0.381207 
0 0.02744452089195755 0 0 0 0 0 0 12:0.47305 13:0.359952 14:0.279796 45:0.420131 68:0.606222 129:0.448154 143:0.417025 153:0.489862 161:0.47305 252:0.364915 259:0.361869 278:1 311:0.683095 317:0.535103 324:0.44834 356:0.444126 379:0.44834 419:0.343822 427:0.443405 440:0.296158 448:0.519181 513:1 517:0.417025 581:0.38971 684:0.389378 702:0.356356 731:0.658571 757:0.417025 836:0.354667 903:0.372962 956:0.399178 962:0.673404 964:0.461007 
0.1861106770532499 0.4467223573001899 0.05552738549738514 0.5085371623872422 0.1050074470853997 0.2813118885919608 1.106340601097734 0.4552662898454435 45:0.620584 147:0.365979 158:0.37172 231:0.389378 360:0.379727 547:0.757854 566:0.572576 579:0.379727 605:0.465955 658:0.489862 680:0.535103 693:0.417025 702:0.356356 738:0.353044 788:0.359024 962:0.353848 
0.04686648831854989 0 0 0.3620294824154062 0 0 0 0 19:0.47305 43:0.615452 48:0.599871 81:0.44834 93:0.443405 101:0.395026 123:0.34577 144:0.36707 147:0.365979 152:0.47305 153:0.489862 169:0.296969 178:0.381207 204:0.417025 226:0.511707 242:0.387629 252:0.744935 259:0.361869 283:0.423419 330:0.563088 356:0.504237 381:0.37555 384:0.417025 385:0.414083 397:0.47305 404:0.903843 408:0.497948 414:0.393071 427:0.84384 431:0.401387 441:0.423419 445:0.543858 452:0.853817 470:0.39119 520:0.430623 539:0.331451 560:0.44834 609:0.547291 621:0.459321 636:0.423419 650:0.685865 665:0.678106 693:0.417025 698:0.511707 704:0.588594 737:0.45954 742:0.411292 744:0.39119 784:0.341365 793:0.417025 824:0.438836 851:0.382734 867:0.646743 876:0.560253 
0 0 0 0 0 0 0.2539110842602667 0 147:0.365979 188:0.420131 286:0.676992 359:0.480959 381:0.37555 407:0.438836 504:0.434588 547:0.47305 566:0.387629 680:0.535103 702:0.356356 707:0.379727 861:0.408637 867:0.403694 962:0.460366 
0.102614625143496 0.3285200884926954 0 0 0 0 0 0.5298485464019803 12:0.47305 13:0.820241 38:0.583501 68:0.688273 144:0.36707 161:0.47305 217:0.353044 252:0.88126 259:0.614805 295:0.636113 310:0.577835 331:0.5 345:0.625441 356:0.444126 364:0.45954 382:0.5 392:0.379727 406:0.546603 413:0.365979 436:0.5 445:0.368188 451:0.849631 470:0.39119 503:0.480959 533:0.417025 534:0.408637 540:0.562382 586:0.423419 604:0.324382 617:0.45954 642:0.47305 675:0.576884 684:0.575158 730:0.304994 731:0.504317 742:0.535103 788:0.359024 801:0.489862 826:0.453696 830:0.359952 836:0.354667 838:0.541977 867:0.403694 868:0.453696 909:0.519342 917:0.318804 926:0.678796 949:0.465955 962:0.652884 964:0.731066 
0 0 0 0 0 0 0.1890528990312959 0 16:0.438836 47:0.423419 123:0.34577 146:0.438836 147:0.365979 169:0.296969 179:0.414083 193:0.511707 220:0.629724 264:0.363876 291:0.39706 320:0.641734 339:0.374238 369:0.420131 407:0.438836 451:0.603607 570:0.45954 574:0.489862 580:0.430623 610:0.393071 636:0.423419 695:0.44834 707:0.379727 726:0.401387 793:0.417025 822:0.438836 859:0.516586 864:0.387629 881:0.588592 912:0.430623 936:0.597875 
0 0 0 0.2819328556795321 0 0 0 0.2878288311662316 81:0.44834 142:0.357227 211:0.590272 313:0.447322 475:0.5 570:0.45954 726:0.401387 867:0.403694 
0 0 0.2016309493316707 0.03945387559738602 0.0642793223195262 0 0 0 4:0.406108 12:0.47305 14:0.279796 23:0.480959 24:0.494037 41:0.511707 45:0.546603 46:0.723585 55:0.65061 64:0.542562 74:0.46252 76:0.511707 86:0.546603 94:0.676992 95:0.403694 101:0.395026 119:0.525461 123:0.553945 128:0.39119 136:0.752903 147:0.540596 153:0.489862 158:0.483619 161:0.47305 163:0.393071 176:0.888133 180:0.443405 188:0.420131 196:0.519342 217:0.459321 231:0.389378 235:0.335315 241:1 256:0.434588 297:0.688273 324:0.44834 330:0.563088 379:0.662253 381:0.638049 389:0.434588 390:0.576884 407:0.648215 408:0.382734 441:0.550881 465:0.588592 494:0.356356 500:0.426908 508:0.480959 511:0.624196 516:0.511707 527:0.393071 548:0.387629 554:0.381207 557:0.443405 562:0.460366 564:0.541977 567:0.654964 574:0.637325 579:0.742079 580:0.430623 582:0.434588 585:0.423419 611:0.443405 619:0.436525 621:0.599811 636:0.550881 644:0.868279 647:0.472093 694:0.511707 695:0.583304 704:0.450731 710:0.438836 716:0.443405 730:0.304994 739:0.722122 744:0.577835 782:0.562382 783:0.662253 788:0.467101 808:0.44834 836:0.354667 851:0.382734 861:0.603607 867:0.646743 876:0.430623 879:0.663386 882:0.570939 892:0.637325 905:0.408637 911:0.549076 921:0.417025 962:0.522676 964:0.406049 
0 0 0.04477976351572605 0 0.01615886801664855 0 0 0 12:0.47305 14:0.475365 41:0.665746 46:0.637325 54:0.39706 55:0.406108 81:0.718268 101:0.632855 123:0.34577 127:0.434588 147:0.675268 176:0.546603 190:0.44834 196:0.399178 264:0.363876 280:0.469541 297:0.606222 309:0.722655 313:0.343822 320:0.3609 345:0.423419 356:0.341365 389:0.641939 392:0.645145 396:0.662253 402:0.434588 412:0.393071 413:0.540596 440:0.296158 444:0.654964 465:0.588592 481:0.685865 494:0.356356 516:0.755854 536:0.324006 557:0.710362 564:0.541977 566:0.658571 576:0.768622 579:0.494037 601:0.731615 610:0.393071 617:0.45954 619:0.384486 662:0.406108 667:0.443405 693:0.668098 704:0.450731 710:0.438836 726:0.401387 737:0.597875 761:0.577835 762:0.583304 793:0.542562 822:0.570939 851:0.613162 861:0.408637 864:0.504317 867:0.403694 881:0.588592 896:0.438836 911:0.37172 920:0.45954 926:0.45954 952:0.379727 957:0.637325 961:0.541977 964:0.406049 
0 0 0.8293589672365731 0 0.6758702774195802 0 0 0 12:0.47305 23:0.480959 123:0.34577 126:0.354667 153:0.489862 161:0.47305 176:0.546603 231:0.389378 235:0.495301 307:0.525461 321:0.583304 322:0.387629 381:0.37555 396:0.44834 427:0.443405 582:0.434588 591:0.434588 610:0.393071 646:0.351482 647:0.362861 652:0.384311 721:0.50895 726:0.401387 737:0.45954 744:0.39119 762:0.583304 836:0.354667 861:0.408637 864:0.572576 881:0.588592 893:0.453696 936:0.45954 964:0.687902 965:0.668098 
0 0 0 0 0 0 0.1083805574987924 0 12:0.47305 14:0.279796 81:0.583304 86:0.620584 90:0.525461 92:0.465955 106:0.516586 123:0.614832 144:0.542207 147:1 153:0.489862 161:0.47305 207:0.683933 211:0.590272 231:0.506592 232:0.489862 256:0.565412 257:0.492171 264:0.363876 280:0.3609 285:0.428333 286:1 309:0.379727 330:0.381207 331:0.5 356:0.504237 382:0.5 400:0.538735 402:0.434588 465:0.765776 475:0.650515 494:0.356356 512:0.562382 617:0.45954 636:0.423419 650:0.403694 670:0.565412 707:0.722655 737:0.678796 738:0.459321 782:0.562382 788:0.467101 793:0.417025 795:0.368188 836:0.354667 882:0.438836 910:0.359024 911:0.549076 921:0.417025 922:0.513941 926:0.45954 962:0.353848 
0 0 0.253805357912879 0.01711067259606827 0 0 0 0 14:0.279796 38:0.395026 46:0.489862 54:0.39706 55:0.599871 81:0.583304 87:0.411292 88:0.668098 101:0.900167 123:0.510744 147:0.540596 158:0.483619 175:0.480959 178:0.495961 197:0.438836 209:0.443405 215:0.465955 220:0.393071 227:0.5 235:0.335315 264:0.363876 277:0.588592 280:0.7218 281:0.339053 295:0.39706 297:0.859733 309:0.379727 313:0.634385 320:0.3609 330:0.381207 392:0.675213 418:0.331451 440:0.296158 444:0.576884 461:0.44834 472:0.457288 481:0.839354 483:0.436921 489:0.597875 494:0.46363 516:0.511707 524:0.538735 533:0.417025 547:0.47305 557:0.443405 566:0.387629 572:0.576884 579:0.608346 582:0.565412 597:0.710434 601:0.731615 610:0.667816 611:0.443405 617:0.45954 622:0.521489 636:0.423419 647:0.362861 648:0.489862 662:0.528359 669:0.453696 670:0.434588 693:0.417025 694:0.511707 698:0.511707 704:0.450731 716:0.576884 726:0.713727 730:0.396806 737:0.678796 739:0.406108 762:0.44834 774:0.423419 783:0.44834 784:0.341365 788:0.609971 793:0.769451 802:0.426908 808:0.44834 827:0.411292 839:0.434588 851:0.613162 861:0.408637 867:0.403694 879:0.414083 880:0.370512 881:0.94296 887:0.417025 911:0.37172 920:0.597875 936:0.597875 942:0.560903 961:0.541977 964:0.312098 967:0.381207 
0 0 0.1814981524249162 0 0 0 0 0 76:0.511707 123:0.34577 146:0.438836 169:0.296969 179:0.414083 193:0.511707 207:0.426908 265:0.46363 275:0.588592 293:0.511707 320:0.469541 369:0.420131 394:0.45954 459:0.497948 516:0.511707 674:0.541977 726:0.401387 867:0.403694 
0 0 0.200666847389185 0.2189538367468881 0 0 0.1176487460980522 0 18:0.665746 24:0.379727 46:0.489862 47:0.423419 59:0.565412 81:0.718268 93:0.443405 101:0.821331 114:0.443357 123:0.34577 147:0.365979 161:0.47305 179:0.414083 231:0.506592 242:0.387629 277:0.588592 280:0.533093 297:0.606222 313:0.343822 320:0.613158 364:0.597875 392:0.560903 396:0.44834 403:0.357227 444:0.443405 475:0.5 481:0.646743 504:0.434588 552:0.423419 557:0.443405 560:0.44834 579:0.379727 582:0.565412 585:0.423419 597:0.770524 601:0.689883 610:0.580614 611:0.443405 631:0.562382 636:0.423419 670:0.434588 693:0.417025 694:0.511707 698:0.665746 704:0.346441 726:0.522216 728:0.525461 737:0.597875 743:0.44834 762:0.44834 785:0.362861 788:0.467101 793:0.417025 795:0.543858 829:0.382734 851:0.382734 864:0.387629 880:0.370512 887:0.542562 911:0.37172 926:0.597875 942:0.494037 957:0.489862 961:0.541977 
0 0 0.06281808630229251 0 0.1777845976143368 0 0 0 12:0.47305 13:0.531692 24:0.379727 31:0.36707 76:0.511707 119:0.683641 123:0.34577 153:0.489862 161:0.47305 176:0.420131 213:0.430623 291:0.39706 309:0.608346 345:0.423419 381:0.37555 390:0.443405 414:0.393071 419:0.343822 446:0.588592 494:0.356356 560:0.44834 579:0.494037 619:0.295524 656:0.434588 698:0.511707 716:0.443405 718:0.525461 783:0.44834 788:0.359024 808:0.44834 836:0.354667 851:0.497948 860:0.401387 864:0.387629 887:0.417025 952:0.494037 964:0.669803 
0.1095704775270283 0.2340554784653577 0.9329303671744775 0 0.6318145091487772 0.512408808351296 0 0 146:0.438836 179:0.414083 320:0.3609 414:0.393071 694:0.511707 726:0.401387 864:0.387629 960:0.624196 
0 0 0 0 0 0 0 0.2611783866897146 12:0.47305 23:0.625742 31:0.36707 92:0.465955 147:0.365979 153:0.489862 158:0.37172 161:0.615452 176:0.420131 178:0.381207 180:0.443405 207:0.683933 242:0.387629 264:0.363876 266:0.417025 293:0.511707 309:0.560903 371:0.408637 381:0.37555 384:0.417025 400:0.414083 451:0.408637 470:0.39119 483:0.335827 494:0.356356 574:0.489862 601:0.430623 605:0.606222 610:0.393071 636:0.423419 703:0.565412 713:0.465955 744:0.39119 788:0.359024 829:0.382734 836:0.354667 851:0.382734 879:0.414083 880:0.370512 912:0.430623 959:0.5 
0 0 0 0 0 0.03691943422210721 0 0 12:0.47305 153:0.489862 161:0.615452 231:0.389378 283:0.423419 313:0.343822 408:0.382734 494:0.356356 539:0.331451 562:0.353848 665:0.339053 669:0.453696 719:0.480959 744:0.50895 763:0.47305 808:0.44834 836:0.354667 880:0.547291 918:0.399178 922:0.395026 
0 0 0.1426210716816055 0 0 0 0.2610055170166035 0 12:0.47305 16:0.648215 31:0.36707 45:0.420131 102:0.723585 109:0.443405 114:0.340774 123:0.587453 147:0.877597 153:0.489862 161:0.47305 175:0.480959 176:0.71379 178:0.381207 179:0.414083 188:0.620584 191:0.338496 193:0.869375 196:0.399178 198:0.401387 211:0.453696 215:0.465955 220:0.511397 235:0.436255 264:0.363876 275:0.869422 280:0.533093 291:0.516586 292:0.665746 330:0.495961 356:0.444126 359:0.625742 381:0.488602 382:0.5 389:0.565412 390:0.654964 396:0.583304 407:0.438836 417:0.511707 458:0.44834 459:0.747954 461:0.583304 468:0.480516 475:0.5 481:0.525219 483:0.335827 493:0.624196 494:0.356356 504:0.565412 520:0.430623 522:0.489862 523:0.50895 532:0.511707 536:0.324006 551:0.625742 560:0.718268 570:0.678796 591:0.434588 597:0.480959 609:0.482047 610:0.511397 631:0.562382 644:0.920802 648:0.489862 657:0.328797 662:0.406108 670:0.434588 674:0.541977 698:0.511707 699:0.379727 704:0.346441 716:0.753332 742:0.658914 752:0.560253 768:0.368188 771:0.434588 784:0.444126 794:0.389378 802:0.426908 829:0.382734 836:0.354667 841:0.898052 860:0.713727 864:0.387629 879:0.538735 911:0.483619 921:0.615996 926:0.597875 963:0.44834 966:0.625742 
0 0 0 0.1938532758579559 0 0 0.1413411833184868 0.04896188741791122 8:0.39706 9:0.482047 14:0.44825 31:0.477569 45:0.420131 54:0.39706 55:0.528359 123:0.510744 124:0.374238 136:0.550881 141:0.372962 144:0.623641 147:0.47615 158:0.37172 161:0.615452 169:0.504541 176:0.546603 179:0.414083 182:0.406108 188:0.420131 204:0.417025 207:0.426908 209:0.443405 211:0.590272 213:0.430623 217:0.521489 221:0.47305 230:0.440394 235:0.335315 243:0.443405 259:0.534525 278:0.389378 283:0.423419 295:0.636113 313:0.611367 317:0.411292 330:0.381207 346:0.364915 356:0.504237 359:0.480959 365:0.738561 371:0.408637 373:0.480959 381:0.554734 382:0.5 390:0.654964 392:0.608346 400:0.414083 402:0.565412 407:0.570939 408:0.382734 411:0.492171 413:0.47615 419:0.611367 431:0.643046 451:0.408637 452:0.952197 459:0.565344 464:0.414083 470:0.39119 475:0.5 504:0.565412 516:0.511707 527:0.393071 539:0.331451 540:0.562382 563:0.434588 572:0.443405 591:0.434588 601:0.689883 621:0.353044 622:0.353044 631:0.562382 636:0.550881 666:0.384311 682:0.403694 703:0.434588 707:0.379727 722:0.434588 727:0.420131 731:0.387629 737:0.45954 739:0.406108 742:0.607528 763:0.47305 771:0.434588 786:0.522216 795:0.368188 830:0.359952 836:0.602569 867:0.744856 876:0.430623 909:0.399178 911:0.37172 912:0.430623 942:0.560903 962:0.353848 964:0.530245 
0.02616846522394929 0 0.2908757966497927 0 0.05716008907918776 0 0 0.5243823407825028 117:0.467101 146:0.438836 197:0.438836 220:0.393071 236:0.588592 293:0.511707 320:0.469541 580:0.430623 610:0.393071 693:0.417025 716:0.443405 864:0.387629 960:0.624196 
0 0 0.2849876099139971 0 0 0.7446239510784756 0 0 76:0.511707 81:0.44834 254:0.541977 504:0.434588 611:0.576884 716:0.443405 756:0.480959 824:0.438836 952:0.379727 
0 0 1.492697359739818 0 0.1509083745882071 0.5832174103771197 0 0 81:0.44834 215:0.465955 254:0.541977 330:0.381207 504:0.434588 580:0.430623 611:0.443405 716:0.576884 
0.1130432492303635 0.01934852767266235 0.7669420899905329 0 0.1755929990661808 0 0 0 254:0.705128 504:0.434588 611:0.443405 647:0.362861 676:0.414083 677:0.683641 716:0.443405 960:0.624196 
0 0 0 0 0 0 0.5951725022388321 0 4:0.406108 12:0.47305 16:0.570939 19:0.47305 31:0.542207 35:0.528359 46:0.489862 47:0.752903 48:0.406108 49:0.678796 66:0.369335 81:0.44834 95:0.744856 98:0.354667 110:0.399178 123:0.34577 147:0.365979 150:0.492171 153:0.489862 161:0.47305 173:0.480959 175:0.480959 179:0.414083 182:0.406108 193:0.511707 198:0.522216 206:0.453696 207:0.426908 214:0.541977 215:0.886755 231:0.389378 234:0.45954 246:0.588592 256:0.434588 260:0.47305 263:0.393071 264:0.473414 265:0.356356 280:0.469541 326:0.5 330:0.677843 337:0.93991 339:0.374238 359:0.480959 369:0.546603 396:0.44834 397:0.803697 416:0.673075 417:0.511707 459:0.565344 464:0.414083 467:0.489862 477:0.389378 481:0.403694 483:0.335827 486:0.522787 493:1 494:0.46363 520:0.794541 537:0.550881 551:0.710434 558:0.670164 562:0.522676 564:0.705128 570:0.597875 580:0.430623 589:0.489862 593:0.828539 610:0.629724 611:0.576884 630:0.47305 636:0.423419 643:0.401387 644:0.541977 674:0.541977 693:0.741533 694:0.511707 698:0.511707 702:0.46363 726:0.522216 732:0.465955 741:0.525461 760:0.403694 787:0.637325 788:0.467101 793:0.417025 802:0.630596 822:0.438836 829:0.382734 836:0.354667 839:0.641939 843:0.599811 845:0.892743 846:0.408637 867:0.596306 889:0.426908 892:0.489862 911:0.483619 918:0.399178 919:0.563088 921:0.417025 
0 0.3306743258249755 0 0 0 0 0 0.1440796549278677 14:0.413293 146:0.438836 220:0.393071 320:0.3609 431:0.401387 559:0.588592 611:0.443405 666:0.384311 707:0.379727 713:0.465955 897:0.438836 
0.01651614592870842 0 0 0 0 0 0 0 3:0.426908 12:0.47305 13:0.576664 123:0.34577 147:0.365979 153:0.489862 161:0.47305 176:0.420131 179:0.611651 211:0.453696 235:0.335315 272:0.562382 283:0.625441 290:0.453696 356:0.341365 402:0.434588 468:0.369335 517:0.542562 609:0.370512 611:0.576884 669:0.453696 684:0.389378 716:0.443405 788:0.467101 836:0.354667 841:0.45954 918:0.678191 921:0.417025 940:0.596306 954:0.45954 
0 0 0 0 0.1149295560145448 0 0 0 6:0.387629 12:0.47305 19:0.47305 31:0.36707 43:0.946099 50:0.588592 59:0.434588 68:0.465955 74:0.46252 132:0.705128 147:0.365979 148:0.480959 153:0.489862 154:0.374238 161:0.47305 167:0.284747 169:0.637333 186:0.611651 197:0.438836 242:0.504317 248:0.426908 252:0.584616 297:0.465955 306:0.417025 313:0.447322 317:0.411292 328:0.480959 335:0.387629 345:0.550881 356:0.341365 384:0.417025 400:0.538735 402:0.434588 406:0.420131 408:0.896524 431:0.401387 445:0.368188 451:0.408637 539:0.630782 562:0.353848 580:0.430623 609:0.370512 612:0.731615 634:0.423024 646:0.351482 665:0.543184 698:0.511707 701:0.44834 704:0.346441 742:0.839608 744:0.577835 770:0.423419 783:0.44834 785:0.472093 808:0.44834 836:0.354667 911:0.37172 922:0.513941 949:0.465955 959:0.5 
0 0 0 0 0 0 1.361921695266365 0 19:0.47305 77:0.343822 79:0.438836 123:0.34577 146:0.438836 147:0.365979 179:0.414083 188:0.420131 193:0.511707 220:0.393071 256:0.434588 320:0.469541 475:0.5 516:0.511707 851:0.382734 864:0.387629 
0 0 0 0.1397204173860563 0 0 0 0 8:0.706032 9:0.370512 12:0.47305 14:0.413293 18:0.511707 19:0.47305 31:0.36707 41:0.909893 43:0.47305 45:0.420131 47:0.550881 48:0.406108 50:0.588592 59:0.434588 68:0.465955 88:0.542562 93:0.443405 101:0.513941 123:0.614832 129:0.448154 147:0.715213 152:0.47305 153:0.489862 157:0.570939 161:0.615452 169:0.296969 175:0.480959 176:0.546603 178:0.381207 179:0.538735 186:0.611651 216:0.453696 217:0.521489 221:0.615452 231:0.389378 242:0.658571 252:0.61998 257:0.672662 259:0.68867 260:0.47305 264:0.473414 272:0.562382 280:0.3609 283:0.625441 295:0.39706 297:0.606222 311:0.413988 313:0.671911 327:0.570939 328:0.817134 330:0.563088 345:0.625441 356:0.898973 362:0.483619 371:0.694262 380:0.384311 381:0.601654 382:0.650515 390:0.443405 402:0.565412 404:0.637325 407:0.438836 408:0.832863 412:0.393071 441:0.423419 452:0.725305 464:0.611651 469:0.301571 481:0.403694 504:0.434588 508:0.480959 514:0.467101 535:0.465955 539:0.647736 554:0.647659 557:0.84384 562:0.353848 568:0.406108 569:0.620584 574:0.637325 580:0.636082 582:0.565412 586:0.550881 593:0.465955 601:0.430623 609:0.482047 610:0.580614 611:0.443405 621:0.353044 636:0.895083 650:0.596306 665:0.885873 678:0.430623 695:0.44834 704:0.450731 707:0.379727 710:0.438836 711:0.525461 719:0.480959 730:0.304994 731:0.387629 732:0.465955 737:0.45954 738:0.353044 742:0.731339 746:0.809696 752:0.430623 759:0.393071 762:0.44834 771:0.565412 774:0.423419 788:0.359024 808:0.44834 836:0.461433 839:0.565412 859:0.39706 867:0.525219 876:0.560253 879:0.875349 880:0.370512 893:0.453696 911:0.631541 912:0.689883 917:0.414774 918:0.399178 921:0.417025 942:0.700634 962:0.566885 963:0.44834 
0 0.07628928380647684 0 0 0 0 0 0.01265393476905066 8:0.516586 12:0.47305 14:0.279796 30:0.403694 31:0.542207 38:0.513941 45:0.420131 47:0.550881 48:0.406108 55:0.406108 74:0.355503 93:0.443405 102:0.489862 123:0.510744 129:0.612503 131:0.570939 143:0.668098 144:0.36707 147:0.47615 152:0.47305 153:0.489862 161:0.47305 178:0.381207 203:0.393071 241:0.443405 250:0.411292 264:0.473414 278:0.389378 279:0.417025 281:0.441118 303:0.511397 309:0.379727 311:0.413988 324:0.44834 346:0.648874 347:0.678796 355:0.339053 356:0.732612 379:0.662253 382:0.5 385:0.414083 390:0.443405 392:0.700634 418:0.431228 419:0.447322 448:0.519181 455:0.765776 475:0.5 483:0.335827 489:0.45954 494:0.356356 522:0.489862 524:0.663386 534:0.408637 553:0.480959 574:0.784788 581:0.29954 588:0.45533 593:0.465955 600:0.80103 605:0.465955 609:0.370512 622:0.521489 632:0.639507 634:0.325145 636:0.423419 646:0.351482 648:0.489862 670:0.434588 677:0.84182 693:0.615996 704:0.450731 728:0.525461 730:0.450513 731:0.689264 737:0.780744 752:0.430623 756:0.480959 761:0.50895 770:0.423419 774:0.550881 783:0.44834 788:0.575178 802:0.426908 830:0.359952 836:0.354667 845:0.525461 861:0.408637 879:0.414083 912:0.636082 918:0.519342 921:0.417025 926:0.597875 942:0.379727 949:0.465955 962:0.566885 964:0.5 
0 0 0 0 0.3877237058407031 0 0 0 181:0.443405 277:0.588592 280:0.3609 504:0.434588 610:0.393071 839:0.434588 879:0.414083 881:0.765776 
0.2466171728859704 0.01207887926799506 0.8625356655336044 0 0.8322395895533115 0.2191634785085704 1.677275386241993 0 146:0.703042 214:0.541977 320:0.469541 465:0.588592 516:0.511707 637:0.408637 845:0.525461 864:0.504317 952:0.379727 960:0.624196 
0 0 0 0 0 0 0.1788579764383499 0 12:0.47305 14:0.279796 16:0.780317 18:0.511707 48:0.528359 76:0.665746 81:0.44834 92:0.688273 93:0.443405 123:0.449857 147:0.675268 153:0.489862 161:0.698752 188:0.420131 191:0.338496 206:0.453696 236:0.588592 246:0.765776 257:0.606048 264:0.363876 297:0.688273 299:0.364915 330:0.381207 339:0.374238 356:0.341365 359:0.625742 360:0.379727 400:0.538735 432:0.636113 442:0.44834 468:0.814058 481:0.596306 494:0.356356 504:0.434588 508:0.480959 547:0.615452 560:0.583304 570:0.898052 593:0.465955 610:0.393071 632:0.589634 637:0.408637 646:0.351482 653:0.318484 715:0.417025 726:0.592897 737:0.45954 756:0.480959 762:0.44834 788:0.800784 793:0.542562 802:0.426908 836:0.354667 859:0.636113 861:0.531649 867:0.71783 868:0.453696 876:0.636082 902:0.44834 910:0.359024 911:0.549076 918:0.399178 926:0.73621 961:0.541977 
0 0 0 0.1647143024644241 0 0 0 0 12:0.47305 13:0.359952 14:0.532477 19:0.47305 26:0.546603 31:0.623641 41:0.755854 43:0.47305 48:0.406108 50:0.588592 54:0.39706 68:0.931911 74:0.355503 76:0.511707 77:0.343822 87:0.411292 91:0.395026 101:0.395026 118:0.430623 119:0.525461 123:0.553945 129:0.50881 140:0.34577 143:0.615996 147:0.650767 153:0.489862 161:0.47305 169:0.386365 179:0.414083 201:0.384311 232:0.489862 241:0.443405 242:0.715214 252:0.875045 259:0.614805 263:0.817266 264:0.363876 279:0.417025 283:0.752903 286:0.676992 297:0.465955 311:0.25841 313:0.343822 325:0.698752 339:0.374238 356:0.742841 360:0.700634 382:0.650515 397:0.47305 402:0.565412 403:0.464763 404:0.932251 408:0.650253 412:0.393071 413:0.365979 427:0.443405 442:0.44834 451:0.408637 452:0.725305 494:0.356356 500:0.426908 503:0.770524 517:0.834049 557:0.576884 560:0.44834 563:0.738352 609:0.741023 610:0.393071 611:0.443405 617:0.45954 621:0.353044 636:0.423419 647:0.362861 648:0.489862 650:0.788917 653:0.318484 665:0.764657 670:0.434588 695:0.44834 698:0.511707 704:0.450731 719:0.710434 744:0.50895 746:0.438836 754:0.474766 762:0.583304 788:0.467101 808:0.44834 809:0.641939 829:0.497948 836:0.523887 839:0.434588 840:0.423419 861:0.408637 867:0.403694 873:0.688273 876:0.689883 879:0.414083 882:0.438836 922:0.702416 962:0.460366 
0 0.07581705391636726 0 0 0 0 0 0 12:0.47305 14:0.364023 41:0.511707 77:0.343822 123:0.34577 143:0.417025 153:0.489862 161:0.47305 178:0.381207 203:0.393071 204:0.417025 209:0.443405 257:0.79969 259:0.361869 272:0.562382 291:0.674592 295:0.39706 309:0.379727 326:0.5 330:0.563088 339:0.374238 347:0.45954 353:0.525461 356:0.649648 382:0.5 384:0.417025 392:0.379727 451:0.694262 533:0.417025 553:0.480959 554:0.381207 566:0.621006 619:0.295524 693:0.417025 746:0.438836 836:0.354667 902:0.44834 921:0.615996 962:0.566885 
0.1408827177050054 0 0 0 0 0.0100917259744703 0 0 12:0.47305 153:0.489862 161:0.47305 257:0.378293 259:0.470803 346:0.364915 513:0.414083 605:0.465955 623:0.369335 658:0.489862 707:0.608346 744:0.39119 836:0.354667 917:0.318804 926:0.597875 952:0.379727 962:0.353848 
0 0 0 0 0 0 0.4463489702388863 0 12:0.47305 24:0.379727 45:0.420131 48:0.406108 92:0.465955 123:0.34577 147:0.715213 161:0.615452 175:0.480959 181:0.443405 188:0.546603 215:0.465955 220:0.393071 243:0.443405 264:0.473414 280:0.533093 320:0.3609 396:0.44834 407:0.438836 460:0.5 464:0.414083 468:0.545552 483:0.335827 493:0.624196 494:0.356356 520:0.430623 547:0.47305 563:0.434588 570:0.597875 580:0.689883 593:0.465955 610:0.393071 611:0.443405 636:0.625441 653:0.414357 662:0.528359 669:0.453696 670:0.434588 693:0.708512 702:0.356356 715:0.417025 726:0.681944 728:0.525461 787:0.489862 788:0.530322 802:0.555421 808:0.662253 829:0.497948 836:0.354667 859:0.586505 864:0.504317 867:0.525219 902:0.44834 922:0.395026 957:0.489862 967:0.381207 
0 0.1402194855596382 0.2586041947810712 0 0 0 0.02906902259853411 0 12:0.47305 14:0.413293 64:0.417025 92:0.465955 101:0.583501 127:0.434588 128:0.50895 129:0.344461 136:0.752903 144:0.36707 154:0.374238 158:0.37172 161:0.47305 203:0.393071 209:0.443405 250:0.411292 257:0.378293 311:0.25841 345:0.550881 356:0.444126 381:0.488602 402:0.434588 424:0.357227 441:0.719376 452:0.426908 455:0.588592 469:0.301571 490:0.406108 539:0.331451 621:0.521489 715:0.417025 731:0.387629 778:0.401387 783:0.662253 784:0.341365 788:0.359024 803:0.583304 829:0.382734 836:0.354667 859:0.39706 892:0.489862 907:0.417025 962:0.460366 964:0.406049 
0.1727573524368702 0 0 0.2305716746468839 0 0 0 0 76:0.665746 94:0.880788 147:0.47615 161:0.47305 242:0.504317 254:0.541977 330:0.381207 580:0.430623 610:0.393071 647:0.362861 851:0.497948 867:0.403694 879:0.538735 926:0.45954 
0 0 0 0.235589242172412 0 0 0.5761688007150572 0 76:0.665746 94:1 147:0.47615 196:0.399178 242:0.504317 254:0.541977 504:0.565412 612:0.430623 784:0.341365 851:0.565344 879:0.414083 921:0.417025 
0 0 0.001156473934385527 0.03338014022858574 0 0 0 0 12:0.47305 31:0.36707 43:0.615452 101:0.395026 123:0.449857 147:0.540596 153:0.489862 161:0.47305 169:0.646231 178:0.381207 180:0.576884 190:0.44834 201:0.5 207:0.426908 221:0.615452 232:0.489862 252:0.364915 264:0.537489 285:0.329226 313:0.584143 330:0.495961 359:0.480959 381:0.488602 400:0.414083 408:0.382734 452:0.683933 495:0.44834 527:0.393071 539:0.589371 554:0.381207 573:0.441931 574:0.489862 582:0.434588 601:0.560253 605:0.791644 609:0.370512 634:0.423024 658:0.83226 665:0.576041 670:0.434588 704:0.450731 726:0.401387 736:0.399178 742:0.839608 784:0.444126 788:0.359024 830:0.359952 836:0.354667 867:0.525219 879:0.663386 893:0.453696 911:0.37172 921:0.417025 922:0.395026 963:0.44834 967:0.495961 
0 0 0 0 0 0.3814056450920711 0 0 12:0.47305 13:0.359952 108:0.403694 161:0.47305 168:0.5 278:0.389378 320:0.3609 345:0.423419 356:0.341365 392:0.379727 483:0.335827 583:0.430623 795:0.368188 836:0.354667 952:0.608346 964:0.554958 
0.2478766262881622 0.07514313227782749 1.384977676496369 1.201160287871241 1.069563928449201 0.2126396081616698 0.1465881740917645 0.04383756168719236 95:0.403694 146:0.438836 179:0.414083 214:0.541977 297:0.465955 320:0.3609 417:0.511707 520:0.560253 560:0.44834 694:0.511707 879:0.414083 881:0.588592 
0.08960765306515134 0.008436758192395701 0.7389733746990177 0 0.3144012785675571 0.1478194646739529 0 0 12:0.47305 47:0.423419 161:0.47305 169:0.296969 276:0.387629 356:0.444126 381:0.37555 390:0.443405 402:0.434588 419:0.343822 554:0.381207 621:0.459321 623:0.369335 634:0.325145 704:0.346441 707:0.379727 783:0.44834 799:0.381207 836:0.354667 910:0.467101 926:0.45954 942:0.379727 952:0.494037 964:0.461007 
0 0 0.7325240520719292 0 0 0 0 0 12:0.47305 161:0.47305 198:0.401387 230:0.338496 236:0.588592 278:0.506592 379:0.44834 407:0.438836 490:0.528359 523:0.50895 588:0.349977 704:0.346441 707:0.379727 728:0.525461 768:0.479024 836:0.354667 848:0.399178 952:0.379727 
0 0 0.06712291658366902 0 0.303130568320231 0 0 0 8:0.39706 12:0.47305 147:0.365979 161:0.47305 186:0.414083 217:0.627765 220:0.393071 278:0.389378 345:0.423419 370:0.322542 382:0.5 412:0.511397 744:0.39119 836:0.354667 864:0.572576 964:0.406049 
0 0 0 0 0 0 0 0.8663554777851181 12:0.47305 14:0.413293 36:0.347819 38:0.395026 90:0.525461 147:0.365979 161:0.47305 209:0.443405 220:0.511397 390:0.443405 392:0.379727 413:0.365979 419:0.343822 554:0.381207 601:0.430623 628:0.525461 675:0.443405 718:0.525461 836:0.354667 838:0.541977 848:0.399178 
0 0 0.6321287777066312 0 0.01680433211756673 0.520949677613891 0 0 8:0.39706 12:0.47305 36:0.347819 108:0.403694 128:0.39119 130:0.44834 161:0.47305 169:0.296969 226:0.511707 276:0.387629 278:0.389378 313:0.343822 355:0.339053 419:0.343822 580:0.430623 601:0.560253 698:0.511707 706:0.541977 727:0.420131 836:0.354667 942:0.379727 
0.2319065186896986 0.1917234703682524 0 0.1419387510017269 0.07752172769815913 0 2.253074083166772 0 18:0.665746 123:0.34577 360:0.494037 407:0.438836 504:0.434588 716:0.710362 851:0.650253 867:0.525219 
0 0 0 0 0.445496967710538 0 0 0 18:0.511707 504:0.565412 582:0.434588 716:0.443405 726:0.522216 851:0.650253 867:0.403694 
0 0 0.03659747998906068 0 0 0 0 0 18:0.511707 123:0.34577 297:0.465955 445:0.368188 504:0.434588 716:0.753332 851:0.613162 867:0.403694 
0.04738200201178756 0 0 0 0 0 0 0 4:0.406108 12:0.47305 16:0.438836 23:0.480959 147:0.540596 153:0.489862 161:0.47305 213:0.430623 291:0.39706 381:0.37555 382:0.5 425:0.44834 464:0.611651 494:0.356356 836:0.354667 899:0.47305 949:0.465955 
0 0 0.161990771455926 0 0 0 0 0 3:0.426908 12:0.47305 15:0.443405 23:0.480959 31:0.36707 147:0.47615 153:0.489862 161:0.47305 244:0.755854 278:0.389378 285:0.329226 305:0.465955 330:0.381207 392:0.494037 398:0.465955 425:0.44834 483:0.335827 612:0.430623 632:0.399178 634:0.552412 646:0.648518 707:0.856389 713:0.465955 736:0.519342 742:0.658914 788:0.359024 809:0.565412 825:0.417025 836:0.461433 876:0.430623 899:0.47305 912:0.430623 964:0.461007 967:0.495961 
0 0 0 1.549970394713498 0 0 0 0 188:0.420131 309:0.379727 431:0.401387 452:0.555421 588:0.45533 665:0.339053 851:0.382734 
0.9744629227139802 1.090437836919389 1.074962138344733 1.573760196569192 2.125844102847251 1.888110225268074 1.422784870925813 1.753085737574071 279:0.417025 381:0.37555 481:0.403694 707:0.494037 887:0.417025 964:0.312098 
0 0 0.3189105434912172 0 0 0 0 0.1243167262576657 12:0.47305 19:0.47305 144:0.36707 153:0.489862 161:0.47305 169:0.296969 179:0.538735 197:0.438836 217:0.353044 241:0.443405 309:0.494037 313:0.447322 330:0.563088 375:0.393071 381:0.488602 412:0.393071 452:0.630596 533:0.417025 539:0.431228 560:0.44834 588:0.45533 601:0.430623 665:0.576041 670:0.641939 730:0.304994 744:0.39119 749:0.5 836:0.354667 911:0.37172 921:0.417025 942:0.379727 
0 0 0 0.266179980936233 0 0 0 0 12:0.47305 19:0.47305 38:0.671137 81:0.44834 86:0.420131 101:0.395026 102:0.723585 123:0.587453 144:0.542207 147:0.47615 153:0.489862 157:0.438836 161:0.47305 169:0.475762 179:0.538735 205:0.480959 207:0.555421 235:0.335315 241:0.443405 256:0.565412 280:0.3609 291:0.39706 309:0.814944 310:0.39119 313:0.507866 327:0.438836 330:0.495961 360:0.494037 375:0.393071 381:0.601654 382:0.5 385:0.538735 397:0.47305 431:0.401387 452:0.928992 457:0.705128 494:0.356356 504:0.434588 513:0.764024 527:0.511397 539:0.331451 560:0.44834 562:0.460366 565:0.525461 574:0.489862 588:0.349977 601:0.560253 604:0.617328 611:0.443405 621:0.353044 636:0.550881 665:0.737811 666:0.384311 670:0.565412 678:0.430623 694:0.511707 702:0.356356 704:0.659309 726:0.401387 730:0.450513 762:0.44834 774:0.423419 784:0.341365 785:0.472093 788:0.359024 808:0.44834 836:0.354667 839:0.434588 843:0.353044 851:0.382734 861:0.408637 867:0.403694 876:0.430623 879:0.663386 882:0.438836 893:0.453696 902:0.44834 903:0.372962 905:0.408637 911:0.37172 921:0.417025 922:0.395026 942:0.608346 956:0.399178 959:0.5 962:0.353848 963:0.44834 967:0.381207 
0 0 0 0.2750464796938321 0.09398221785758358 0 0.9548183043324926 0.0148175819390386 16:0.438836 47:0.423419 81:0.44834 147:0.47615 161:0.47305 188:0.420131 206:0.453696 242:0.387629 243:0.443405 263:0.393071 461:0.44834 472:0.351482 483:0.335827 508:0.480959 544:0.489862 636:0.423419 678:0.430623 704:0.346441 739:0.528359 788:0.359024 802:0.426908 808:0.44834 887:0.417025 911:0.37172 942:0.379727 
0.07767782419055261 0 0.5703438852285276 0.5496815341837079 0.6897477212405556 0.5134866660090937 0.7073701118207217 0 38:0.513941 123:0.34577 147:0.365979 236:0.588592 280:0.3609 313:0.447322 490:0.406108 519:0.430623 648:0.489862 657:0.328797 665:0.339053 704:0.346441 726:0.522216 728:0.525461 739:0.406108 793:0.417025 803:0.44834 851:0.382734 861:0.408637 887:0.542562 893:0.453696 911:0.37172 
0 0 0.654240274697792 1.464808262368202 0 0 0.3932801698659057 0 101:0.395026 123:0.34577 176:0.420131 275:0.588592 280:0.3609 313:0.447322 381:0.37555 483:0.436921 494:0.356356 524:0.414083 678:0.430623 704:0.450731 716:0.443405 726:0.401387 739:0.406108 778:0.401387 829:0.382734 861:0.408637 864:0.387629 868:0.453696 887:0.417025 893:0.453696 942:0.494037 
0 0.0256308864561787 0 0 0.04206733272796363 0 0 0.3509433404169529 14:0.364023 101:0.395026 214:0.541977 295:0.39706 396:0.44834 461:0.44834 483:0.335827 494:0.356356 537:0.423419 579:0.379727 657:0.328797 678:0.430623 694:0.665746 695:0.44834 704:0.346441 726:0.522216 739:0.528359 785:0.362861 864:0.387629 887:0.417025 903:0.372962 942:0.379727 
0.2434070260961184 0.608653320280553 0 0 1.900897703509918 0.9690867205009327 0.9471880442399769 0.4671555945823184 188:0.420131 309:0.379727 431:0.401387 452:0.555421 588:0.45533 665:0.441118 
0 0 0 0.006203648703119109 0 0 0 0 8:0.636113 12:0.47305 14:0.616704 18:0.511707 19:0.924454 24:0.379727 31:0.36707 47:0.550881 54:0.516586 68:0.791644 76:0.511707 81:0.44834 93:0.443405 101:0.395026 114:0.340774 123:0.553945 131:0.438836 147:0.621788 152:0.47305 153:0.489862 161:0.615452 166:0.318804 169:0.296969 175:0.480959 178:0.381207 191:0.338496 196:0.399178 201:0.384311 204:0.417025 211:0.590272 215:0.465955 221:0.47305 231:0.506592 232:0.489862 242:0.387629 246:0.869422 252:0.584616 256:0.565412 257:0.492171 259:0.470803 264:0.582951 272:0.731676 278:0.389378 279:0.741533 280:0.578183 283:0.423419 291:0.674592 295:0.586505 297:0.465955 303:0.580614 305:0.688273 309:0.675213 313:0.584143 326:0.650515 327:0.438836 328:0.855217 330:0.610716 340:0.731676 353:0.525461 356:0.85517 359:0.480959 360:0.560903 381:0.667786 385:0.414083 396:0.583304 402:0.641939 404:0.489862 407:0.438836 408:0.910987 412:0.511397 413:0.365979 427:0.710362 436:0.650515 441:0.423419 452:1 457:0.541977 463:0.39119 472:0.351482 475:0.650515 481:0.839354 483:0.335827 496:0.453696 503:0.480959 504:0.696236 508:0.625742 516:0.511707 517:0.417025 524:0.414083 527:0.393071 539:0.489594 554:0.381207 560:0.718268 563:0.434588 574:0.723585 580:0.560253 582:0.565412 587:0.45954 601:0.689883 609:0.370512 610:0.393071 611:0.788442 617:0.45954 621:0.353044 628:0.525461 634:0.520902 636:0.423419 650:0.403694 653:0.318484 665:0.772619 669:0.770816 670:0.82706 678:0.430623 693:0.708512 698:0.511707 699:0.379727 702:0.356356 704:0.511736 710:0.438836 711:0.525461 713:0.465955 716:0.443405 719:0.855217 726:0.643046 731:0.387629 742:0.803764 744:0.39119 746:0.857593 756:0.480959 762:0.44834 784:0.341365 785:0.472093 788:0.70162 808:0.44834 809:0.434588 824:0.438836 825:0.417025 829:0.382734 830:0.359952 836:0.354667 839:0.696236 843:0.353044 851:0.382734 861:0.531649 867:0.685865 868:0.453696 873:0.606222 876:0.636082 879:0.663386 880:0.547291 882:0.438836 908:0.426908 909:0.399178 910:0.359024 911:0.68586 917:0.318804 922:0.513941 946:0.588592 949:0.606222 952:0.379727 954:0.45954 959:0.5 961:0.541977 964:0.5 967:0.381207 
0.07145255546019691 0 0 0.01789272613777924 0 0 0 0.06152367527005052 11:0.489862 12:0.47305 31:0.36707 45:0.420131 48:0.406108 59:0.434588 153:0.489862 161:0.47305 217:0.353044 259:0.534525 280:0.3609 306:0.417025 330:0.381207 360:0.379727 384:0.417025 408:0.650253 419:0.447322 463:0.39119 504:0.434588 554:0.381207 562:0.353848 563:0.434588 585:0.423419 593:0.465955 601:0.430623 632:0.519342 634:0.480279 665:0.500823 678:0.430623 704:0.346441 722:0.434588 836:0.354667 876:0.430623 879:0.414083 903:0.372962 920:0.45954 942:0.494037 952:0.379727 967:0.381207 
0 0 0 0.01288144861269687 0 0 0 0 12:0.47305 31:0.477569 47:0.423419 59:0.990319 95:0.403694 123:0.449857 147:0.675268 153:0.489862 161:0.47305 169:0.438659 179:0.414083 180:0.443405 193:0.511707 201:0.384311 211:0.453696 217:0.353044 218:0.569538 221:0.698752 242:0.504317 259:0.667685 264:0.473414 270:0.650515 278:0.389378 283:0.752903 295:0.516586 313:0.447322 330:0.563088 334:0.355503 345:0.550881 359:0.480959 375:0.393071 381:0.638049 382:0.738561 385:0.414083 397:0.615452 400:0.414083 406:0.420131 407:0.570939 408:0.565344 412:0.511397 425:0.583304 442:0.583304 457:0.541977 483:0.335827 504:0.434588 513:0.414083 514:0.718048 517:0.417025 527:0.511397 539:0.589371 554:0.563088 562:0.522676 569:1 601:0.689883 604:0.324382 665:0.500823 693:0.542562 707:0.494037 715:0.417025 731:0.504317 738:0.353044 742:0.822584 754:0.474766 782:0.562382 788:0.530322 830:0.468308 836:0.354667 843:0.353044 867:0.403694 893:0.973689 911:0.37172 921:0.615996 922:0.395026 926:0.45954 942:0.379727 
0 0.165445271645774 0 0 0.1060847642006919 0 0 0.05416855165779599 12:0.47305 14:0.279796 38:0.513941 54:0.39706 64:0.741533 76:0.511707 90:0.525461 102:0.489862 153:0.489862 161:0.47305 176:0.420131 188:0.420131 191:0.5 197:0.438836 209:0.654964 213:0.636082 217:0.353044 221:0.47305 241:0.788442 243:0.443405 278:0.389378 291:0.39706 292:0.511707 293:0.511707 295:0.839361 303:0.393071 330:0.381207 356:0.341365 360:0.645145 379:0.44834 390:0.443405 418:0.431228 431:0.401387 442:0.44834 454:0.420131 464:0.414083 533:0.417025 563:0.641939 568:0.65061 611:0.576884 634:0.325145 675:0.443405 695:0.583304 716:0.443405 759:0.511397 783:0.44834 784:0.341365 788:0.359024 822:0.570939 830:0.359952 836:0.354667 867:0.403694 879:0.414083 896:0.703042 902:0.44834 907:0.834049 909:0.399178 921:0.417025 922:0.513941 949:0.688273 952:0.379727 962:0.566885 964:0.74286 
0 0 0.4821992635852839 0.2079255134385683 0.1104494156645087 0 0.1743715018847485 0 4:0.406108 12:0.47305 14:0.279796 18:0.511707 31:0.477569 38:0.583501 47:0.423419 48:0.528359 81:0.44834 95:0.403694 101:0.395026 102:0.784788 123:0.510744 136:0.423419 147:0.675268 150:0.378293 153:0.489862 158:0.483619 161:0.615452 163:0.393071 176:0.747056 178:0.381207 188:0.71379 196:0.399178 204:0.417025 207:0.426908 213:0.430623 217:0.459321 220:0.725255 235:0.335315 242:0.504317 264:0.537489 272:0.562382 278:0.506592 280:0.3609 291:0.586505 330:0.725471 360:0.560903 379:0.44834 381:0.601654 389:0.869176 390:0.576884 396:0.44834 397:0.47305 407:0.438836 414:0.511397 464:0.414083 481:0.403694 492:0.378293 494:0.570904 504:0.696236 508:0.625742 516:0.511707 536:0.324006 545:0.395026 562:0.353848 569:0.420131 593:0.465955 601:0.560253 610:0.393071 621:0.459321 670:0.434588 684:0.389378 693:0.417025 702:0.356356 737:0.597875 739:0.528359 771:0.434588 783:0.583304 788:0.609971 802:0.555421 824:0.438836 836:0.354667 840:0.423419 859:0.39706 879:0.538735 896:0.438836 911:0.37172 921:0.417025 936:0.678796 962:0.460366 964:0.312098 
0 0 0.004853132217510033 0 0 0 0 0 50:0.588592 94:0.676992 123:0.449857 147:0.586321 481:0.596306 504:0.434588 716:0.443405 911:0.37172 
0 0 0 0 0 0 0 0.07062619547929085 12:0.47305 13:0.531692 14:0.516251 19:0.47305 41:1 54:0.952125 59:0.565412 68:0.465955 86:0.546603 87:0.411292 90:0.525461 144:0.588068 147:0.540596 152:0.47305 153:0.489862 158:0.37172 161:0.47305 209:0.576884 211:0.453696 217:0.353044 230:0.440394 231:0.506592 242:0.504317 250:0.535103 257:0.492171 259:1 272:0.562382 280:0.469541 293:0.665746 295:0.636113 303:0.393071 313:0.343822 330:0.495961 356:0.696859 373:0.480959 382:0.5 408:0.497948 413:0.47615 419:0.343822 427:0.576884 451:0.408637 470:0.39119 504:0.434588 533:0.417025 554:0.495961 557:0.576884 562:0.522676 586:0.550881 591:0.434588 611:0.710362 621:0.353044 631:0.562382 634:0.325145 647:0.472093 669:0.453696 693:0.615996 695:0.827232 707:0.379727 710:0.438836 731:0.504317 746:0.780317 783:0.44834 822:0.438836 826:0.590272 836:0.354667 893:0.453696 896:0.438836 909:0.399178 918:0.399178 922:0.395026 942:0.379727 952:0.560903 962:0.522676 964:0.312098 
0.01104296304398701 0 0 0 0.5083630195118738 0 0 0 12:0.47305 24:0.379727 38:0.632855 44:0.423419 153:0.489862 161:0.47305 176:0.420131 220:0.802413 235:0.335315 241:0.710362 278:0.389378 291:0.586505 390:0.710362 392:0.379727 504:0.434588 554:0.381207 619:0.384486 730:0.304994 737:0.45954 836:0.354667 907:0.417025 921:0.417025 942:0.379727 
0 0 0 0 0 0 0.2801050277153768 0 12:0.47305 14:0.364023 47:0.423419 81:0.44834 95:0.403694 123:0.34577 147:0.621788 161:0.47305 176:0.546603 179:0.414083 181:0.443405 211:0.590272 213:0.430623 220:0.843581 236:0.588592 264:0.363876 280:0.469541 285:0.329226 307:0.683641 320:0.469541 327:0.438836 330:0.495961 381:0.554734 389:0.696236 390:0.443405 397:0.698752 432:0.39706 468:0.591697 470:0.62671 481:0.596306 483:0.436921 494:0.356356 504:0.565412 570:0.597875 591:0.641939 610:0.393071 631:0.562382 636:0.423419 644:0.705128 662:0.406108 670:0.434588 716:0.443405 726:0.522216 788:0.467101 793:0.417025 802:0.426908 808:0.583304 829:0.382734 836:0.354667 851:0.497948 861:0.408637 864:0.504317 911:0.37172 921:0.417025 959:0.5 962:0.353848 
1.673564336667092 3.614146741904175 0.9346863215078738 4 3.441359846135546 2.230539471812659 2.055220925968472 4 14:0.279796 468:0.369335 570:0.45954 
0 0 0.1338347833664433 0 0 0 0 0 11:0.637325 12:0.47305 18:0.755854 38:0.513941 54:0.586505 123:0.587453 161:0.47305 176:0.620584 179:0.414083 188:0.420131 193:0.511707 242:0.504317 277:0.765776 296:0.736303 307:0.525461 313:0.343822 330:0.495961 340:0.731676 396:0.44834 452:0.555421 464:0.414083 492:0.843764 520:0.430623 523:0.66462 536:0.324006 547:0.47305 572:0.443405 610:0.667816 611:0.443405 632:0.399178 644:0.541977 670:0.434588 678:0.636082 698:0.511707 704:0.450731 726:0.643046 732:0.465955 739:0.406108 761:0.39119 788:0.359024 827:0.535103 836:0.354667 839:0.434588 861:0.408637 922:0.395026 964:0.312098 
0 0 0.3034615682131888 0 0 0 0 0 12:0.47305 13:0.359952 14:0.279796 24:0.379727 48:0.406108 102:0.784788 114:0.340774 123:0.510744 147:0.47615 153:0.489862 154:0.486895 161:0.47305 163:0.393071 176:0.546603 179:0.414083 188:0.747056 196:0.399178 209:0.443405 213:0.430623 214:0.541977 220:0.393071 254:0.705128 257:0.378293 280:0.3609 296:0.414083 302:0.39119 320:0.822402 324:0.44834 327:0.438836 355:0.339053 381:0.37555 390:0.576884 392:0.379727 418:0.331451 419:0.343822 451:0.408637 455:0.588592 464:0.414083 477:0.389378 499:0.411292 520:0.430623 534:0.408637 560:0.583304 563:0.565412 577:0.480959 580:0.430623 609:0.370512 611:0.576884 662:0.406108 680:0.822584 693:0.417025 700:0.562382 718:0.525461 726:0.401387 727:0.673075 737:0.45954 768:0.368188 793:0.417025 808:0.44834 809:0.434588 818:0.426908 836:0.354667 864:0.775259 876:0.430623 887:0.741533 926:0.597875 936:0.45954 946:0.588592 952:0.494037 964:0.575852 
0 0 0.04946899388271027 0 0 0 0 0 12:0.47305 19:0.615452 59:0.434588 87:0.535103 92:0.791644 101:0.395026 114:0.443357 117:0.467101 123:0.449857 142:0.357227 147:0.365979 153:0.489862 161:0.47305 176:0.546603 178:0.381207 179:0.538735 191:0.338496 215:0.606222 217:0.353044 231:0.575158 247:0.527668 264:0.647027 269:0.738561 283:0.550881 330:0.563088 335:0.387629 359:0.480959 381:0.37555 390:0.576884 402:0.565412 403:0.464763 408:0.497948 427:0.576884 445:0.368188 483:0.496057 500:0.426908 527:0.393071 562:0.353848 574:0.489862 582:0.434588 585:0.423419 621:0.353044 636:0.423419 658:0.489862 669:0.453696 704:0.346441 713:0.465955 715:0.542562 716:0.576884 719:0.480959 726:0.643046 737:0.45954 788:0.609971 794:0.623806 814:0.399178 830:0.359952 836:0.354667 853:0.453696 867:0.596306 868:0.590272 879:0.538735 880:0.806267 902:0.44834 911:0.37172 912:0.430623 919:0.381207 921:0.417025 929:0.560253 942:0.494037 956:0.519342 957:0.489862 961:0.705128 967:0.381207 
0.04747596562292758 0 0 0 0 0 0 0.02076772983614034 12:0.47305 66:0.369335 153:0.489862 161:0.47305 242:0.387629 252:0.584616 283:0.625441 356:0.341365 392:0.675213 402:0.434588 404:0.489862 431:0.763875 445:0.654694 454:0.71379 470:0.39119 503:0.480959 609:0.370512 650:0.596306 670:0.434588 682:0.403694 684:0.506592 707:0.379727 744:0.39119 836:0.354667 880:0.370512 912:0.430623 918:0.399178 919:0.495961 922:0.395026 926:0.45954 959:0.650515 
0 0 0 0 0 0 0.8803100784672384 0 3:0.426908 12:0.47305 31:0.36707 56:0.5 76:0.511707 109:0.443405 153:0.489862 161:0.47305 175:0.887416 220:0.511397 234:0.45954 235:0.335315 264:0.363876 277:0.588592 280:0.3609 316:0.465955 417:0.511707 426:0.723585 461:0.44834 475:0.5 504:0.641939 531:0.489862 537:0.423419 549:0.562382 551:0.480959 593:0.465955 636:0.423419 695:0.583304 707:0.494037 726:0.401387 760:0.403694 771:0.565412 799:0.381207 809:0.434588 836:0.354667 845:0.525461 889:0.555421 907:0.417025 914:0.797217 919:0.381207 954:0.45954 
0 0 0 0.6063439440162418 0 0 0 0 12:0.47305 47:0.550881 94:1 147:0.47615 153:0.489862 161:0.615452 190:0.44834 211:0.453696 236:0.765776 256:0.434588 259:0.361869 272:0.562382 283:0.423419 316:0.465955 324:0.44834 356:0.444126 359:0.480959 381:0.488602 382:0.650515 385:0.663386 407:0.570939 580:0.430623 639:0.489862 693:0.417025 707:0.494037 782:0.562382 830:0.359952 836:0.354667 867:0.403694 879:0.538735 942:0.560903 962:0.460366 964:0.312098 
0.03814571608363148 0 0.2683260858347291 0 0 0 0 0 123:0.34577 193:0.511707 236:0.588592 242:0.387629 330:0.381207 359:0.625742 481:0.403694 563:0.434588 680:0.411292 716:0.443405 879:0.611651 881:0.588592 
0.3856635188998042 0.3002851860734574 1.706620385757181 0.9096025180622269 1.061148815642484 1.935048948462669 0.6615680931542083 0.4291109134097133 14:0.279796 102:0.489862 215:0.465955 563:0.434588 580:0.636082 680:0.411292 737:0.45954 859:0.39706 
0 0 0 0 0 0.168351207163488 0 0.1048318220996733 81:0.44834 123:0.34577 154:0.374238 243:0.443405 254:0.541977 259:0.361869 359:0.480959 528:0.562382 570:0.45954 580:0.430623 591:0.434588 611:0.443405 680:0.535103 809:0.565412 926:0.45954 
0.07913499142778464 0 0 0 0 0.4388963723445628 1.673465478656664 0.09203159831844521 102:0.489862 142:0.527668 330:0.381207 504:0.801857 611:0.443405 784:0.341365 793:0.417025 879:0.414083 
0 0.3941653667292827 0 0 0 0 0 0 102:0.489862 142:0.464763 256:0.434588 381:0.37555 504:0.801857 522:0.489862 716:0.443405 717:0.417025 793:0.417025 839:0.434588 957:0.489862 
0 0 1.433056523633961 0.02779164220632555 0.02575221473122256 0 0 0 11:0.723585 18:0.665746 47:0.423419 52:0.5 76:0.511707 123:0.675719 176:0.873528 179:0.538735 198:0.401387 235:0.638134 256:0.434588 279:0.417025 280:0.533093 296:0.703515 297:0.465955 307:0.683641 327:0.438836 330:0.495961 396:0.583304 441:0.550881 452:0.555421 464:0.414083 483:0.335827 492:0.900418 504:0.434588 536:0.421542 560:0.44834 572:0.576884 597:0.480959 601:0.430623 610:0.511397 611:0.710362 621:0.353044 631:0.731676 636:0.550881 670:0.434588 704:0.511736 716:0.443405 726:0.681944 739:0.77286 761:0.39119 808:0.44834 824:0.438836 839:0.565412 867:0.403694 887:0.793635 911:0.595518 
0 0 0.3440873904069754 0 0 0 0 0 8:0.39706 12:0.47305 18:0.665746 35:0.406108 46:0.784788 123:0.449857 153:0.489862 161:0.47305 176:0.546603 260:0.47305 277:0.588592 280:0.3609 290:0.590272 296:0.663386 327:0.438836 330:0.381207 452:0.426908 492:0.739277 494:0.356356 547:0.47305 580:0.430623 582:0.434588 610:0.511397 704:0.450731 726:0.592897 729:0.624196 739:0.65061 761:0.39119 787:0.489862 836:0.354667 839:0.434588 861:0.531649 867:0.403694 946:0.588592 
